1280 100
리스크 0.29366034 0.081213355 0.7992102 -0.21392082 -0.24345268 -0.4489435 -0.13822997 0.16230504 0.12712897 0.41810235 0.1440951 -0.22207512 -0.013260216 -0.004084916 -0.041058473 -0.04467846 -0.21939269 0.42316547 0.13049869 0.2140833 -0.19855481 0.08588297 -0.08223572 -0.52667177 0.5509213 0.21127638 0.19748318 -0.31390247 -0.35361913 -0.10199184 -0.14058252 -0.36113545 -0.28701103 -0.2616714 -0.13771887 -0.12242869 -0.007453862 0.27300164 -0.2753089 0.027441977 0.31794965 0.04002689 -0.0764225 -0.006701688 -0.6403737 0.16872995 0.20750402 -0.19779897 -0.5479376 -0.028103478 0.15826495 0.2016981 0.04961511 -0.15306047 -0.115354694 0.19511892 -0.09788189 -0.15719211 0.076619305 -0.037642594 -0.094161786 0.29840386 -0.5426848 -0.06458488 0.08257439 -0.6010799 0.024615383 0.11185509 0.15687442 -0.36029315 0.21223031 -0.25207663 0.36852023 0.13617997 0.401567 0.28116044 -0.037427258 -0.5902014 -0.11212666 -0.012641368 0.24882251 -0.12644067 -0.003911935 -0.05293413 0.16580279 -0.10101654 -0.42517608 0.16866697 0.5934199 -0.05354521 -0.16448234 -0.14038587 0.28885603 0.10741289 -0.114680566 0.13556923 0.16880187 -0.11545136 0.048790097 0.027441273
관리 0.27514747 0.07221593 0.7511125 -0.19655107 -0.23817256 -0.4241397 -0.1293792 0.14994985 0.11838005 0.39555562 0.14181347 -0.21582678 -0.012782649 0.0032568302 -0.029878328 -0.034974527 -0.20225759 0.38986605 0.121254705 0.1957834 -0.18449447 0.0717392 -0.07914775 -0.49540493 0.5174895 0.19758809 0.18625665 -0.29900414 -0.33089584 -0.09599693 -0.13834658 -0.34709468 -0.26564682 -0.24731295 -0.12481116 -0.11425056 -0.013950184 0.25143892 -0.25678012 0.020913756 0.29050806 0.03366777 -0.08027225 0.0009850495 -0.60308886 0.15867536 0.19887014 -0.18364592 -0.5191666 -0.026152028 0.14170128 0.1859203 0.043266732 -0.15103449 -0.11661392 0.18337572 -0.09257312 -0.14047779 0.07127025 -0.03228335 -0.08743723 0.28680357 -0.51617146 -0.059788924 0.07936668 -0.5532925 0.027748404 0.10962233 0.14984618 -0.3410568 0.20038073 -0.23815104 0.34738448 0.13554811 0.37948352 0.26147503 -0.04373285 -0.5585221 -0.100543156 0.0001946195 0.23337765 -0.12000197 -0.0107887415 -0.05640629 0.15831193 -0.09783641 -0.39431968 0.16599825 0.5576399 -0.050363798 -0.14997356 -0.12631038 0.269641 0.09877941 -0.10530657 0.13357405 0.1583407 -0.0980574 0.0419025 0.029704727
전략 0.24987677 0.06510279 0.6543653 -0.16972424 -0.2088529 -0.37536812 -0.11409736 0.13973704 0.09908338 0.3445313 0.12253724 -0.19578595 -0.0014379491 0.002067385 -0.037588976 -0.027427603 -0.18246704 0.35353193 0.111603275 0.1806159 -0.16846788 0.07255828 -0.062428776 -0.43352512 0.45410392 0.18085659 0.1673572 -0.25976965 -0.29685995 -0.08273985 -0.12767544 -0.30677634 -0.24099627 -0.21604118 -0.12130284 -0.095066406 -0.0065677273 0.22742553 -0.22692198 0.01938084 0.26517016 0.032227226 -0.06612964 0.0039411536 -0.53840554 0.14615017 0.17053664 -0.1681561 -0.44606006 -0.018698199 0.13457575 0.16431215 0.040867202 -0.123654336 -0.09493644 0.16037814 -0.085977666 -0.12810211 0.05813913 -0.02923554 -0.071145795 0.2511048 -0.45527005 -0.047563374 0.06934362 -0.4974722 0.02377072 0.09815042 0.13243867 -0.29609257 0.17734718 -0.20912641 0.30500957 0.11595458 0.33067098 0.22625843 -0.031416345 -0.48600304 -0.09534767 0.0008502156 0.21112639 -0.10291201 -0.000903866 -0.044957545 0.14151683 -0.08779139 -0.34941012 0.14968298 0.48843113 -0.039764408 -0.12563632 -0.11451714 0.2403828 0.08607344 -0.09180579 0.11667538 0.13452163 -0.09864044 0.029666005 0.030265892
위험 0.31192455 0.08982816 0.85477793 -0.22890626 -0.25990248 -0.47640958 -0.14401829 0.17089558 0.14368019 0.44656205 0.14244986 -0.25437608 -0.008633521 -0.0046152533 -0.03777276 -0.05171416 -0.25069717 0.4607614 0.13943157 0.23088811 -0.21617317 0.08980646 -0.08738521 -0.5537476 0.597667 0.22332895 0.21892476 -0.34942272 -0.3929004 -0.10838973 -0.15215136 -0.39440092 -0.3080293 -0.27696744 -0.14145349 -0.1272376 -0.0015197351 0.2839951 -0.28585488 0.01654263 0.33016488 0.03615749 -0.08041635 -0.010284111 -0.7041005 0.19999306 0.22029892 -0.21412362 -0.5999864 -0.023512352 0.15513518 0.21932922 0.064923204 -0.16748683 -0.12800837 0.21427153 -0.09860864 -0.16414538 0.07225254 -0.022504369 -0.104568504 0.31897715 -0.5791446 -0.054649774 0.08488693 -0.64775467 0.024900883 0.13405794 0.15944982 -0.37958607 0.22965078 -0.26264825 0.39121035 0.15534988 0.43380895 0.30080235 -0.056989286 -0.62761396 -0.10886577 -0.00021137706 0.27411667 -0.16019599 -0.016173461 -0.07124392 0.18005708 -0.100932114 -0.4670131 0.16463017 0.63155675 -0.052503876 -0.17692152 -0.14408517 0.30032283 0.10378424 -0.13421853 0.14672954 0.17784277 -0.12412132 0.04086345 0.035849575
기업 0.3420305 0.091197506 0.923726 -0.24131924 -0.27662545 -0.5131679 -0.15882723 0.18434411 0.14175928 0.49166816 0.16783 -0.27004084 -0.006974844 -0.003591841 -0.049273852 -0.051548988 -0.27169535 0.5002075 0.15972933 0.2463042 -0.22870192 0.0891777 -0.09474392 -0.60392725 0.6445003 0.24853411 0.23131281 -0.3697145 -0.42589584 -0.10988172 -0.17494339 -0.42409354 -0.34275502 -0.30838406 -0.15416826 -0.14021386 -0.018413916 0.31920823 -0.30817375 0.020284383 0.36083865 0.047005676 -0.097252935 0.001916844 -0.7657543 0.20525935 0.24763437 -0.23882733 -0.6454201 -0.026264107 0.17635328 0.24098474 0.06461979 -0.17781642 -0.14002088 0.23109141 -0.09678882 -0.17808129 0.083142355 -0.024272455 -0.10192062 0.3505718 -0.6353054 -0.059377484 0.08820808 -0.6986657 0.017463783 0.14130223 0.18019426 -0.4159188 0.2502479 -0.2967889 0.4306994 0.16527313 0.46586487 0.31241348 -0.057261754 -0.6758521 -0.11322731 -0.0069701355 0.29755443 -0.17353557 -0.02030952 -0.075241484 0.19735834 -0.11968449 -0.5081176 0.18400808 0.6860207 -0.07014723 -0.18311054 -0.14957318 0.33375856 0.110809326 -0.13788125 0.16287683 0.19812612 -0.12451706 0.040938158 0.043103278
도입 0.2373623 0.063389115 0.6253538 -0.16428244 -0.19276352 -0.35103446 -0.106395766 0.13177262 0.09478127 0.33830538 0.11739763 -0.18620458 -0.011727598 -0.0016644488 -0.031025892 -0.030211018 -0.18049274 0.33892608 0.10335134 0.17198287 -0.15196382 0.07249631 -0.06338296 -0.41018933 0.4358145 0.16804641 0.16600843 -0.24932085 -0.29038888 -0.06895377 -0.11611865 -0.2915438 -0.2220961 -0.20243523 -0.114925064 -0.08873314 -0.010968796 0.2155568 -0.20658569 0.024362132 0.25221953 0.0281131 -0.06628133 0.008624349 -0.5165807 0.13980179 0.17117968 -0.15648767 -0.4313633 -0.027399138 0.12598588 0.15554272 0.0391184 -0.11979224 -0.091845885 0.16034846 -0.07625389 -0.119522765 0.053215973 -0.015045299 -0.07603028 0.2329889 -0.43768004 -0.046672102 0.0644343 -0.4682019 0.013320764 0.089731365 0.12067974 -0.28198373 0.16680595 -0.19612256 0.28773913 0.1051007 0.3253046 0.21047649 -0.035121154 -0.4513534 -0.07524406 -0.008786009 0.19449894 -0.10956878 0.0014604272 -0.0449341 0.13619515 -0.076954894 -0.33854422 0.13545324 0.466988 -0.038700562 -0.124845654 -0.105269454 0.22021237 0.07392249 -0.08547475 0.115645416 0.13380252 -0.08391942 0.028111346 0.018828062
평가 0.25664473 0.078006014 0.71497744 -0.18586949 -0.22041658 -0.40355107 -0.12370754 0.14418176 0.11797951 0.37518114 0.12655775 -0.20801751 -0.012731028 0.00079726 -0.03147928 -0.03742662 -0.20668495 0.3769644 0.11899565 0.19164613 -0.17863466 0.07586665 -0.067863435 -0.46782276 0.48739767 0.19407007 0.18051416 -0.2861755 -0.3247677 -0.0861599 -0.134214 -0.32484052 -0.26000258 -0.22834148 -0.1164417 -0.1013056 -0.0034198475 0.24025348 -0.24297896 0.016962321 0.27580148 0.034908373 -0.07061999 -0.0078047756 -0.5840328 0.16765842 0.18794918 -0.18530959 -0.4930365 -0.023341257 0.12968309 0.17787331 0.045551315 -0.13637789 -0.10484527 0.18344991 -0.08375065 -0.13910705 0.066499606 -0.025928138 -0.08863619 0.2743228 -0.48144794 -0.054850534 0.072540246 -0.5393221 0.016716337 0.11097004 0.14169808 -0.32360667 0.19687961 -0.22293615 0.3283244 0.1276396 0.358291 0.24747169 -0.038073603 -0.52414846 -0.08726781 -0.00024506747 0.22750475 -0.13060272 -0.01673255 -0.05630047 0.14903584 -0.082263105 -0.38191992 0.14101884 0.5245546 -0.049200438 -0.13805038 -0.122980945 0.2586328 0.08861613 -0.1017806 0.12833104 0.14675698 -0.09959023 0.032752912 0.037024077
조직 0.280942 0.073613614 0.7738119 -0.200346 -0.23830414 -0.43703875 -0.12777798 0.15533574 0.12853049 0.40809715 0.14354306 -0.22003259 -0.017839339 0.0021640777 -0.032527536 -0.044569366 -0.21715981 0.41236234 0.13353577 0.20025274 -0.18755937 0.07231027 -0.071236305 -0.50472265 0.52612555 0.20327562 0.19106652 -0.3136947 -0.34305245 -0.087112516 -0.14433995 -0.35028324 -0.2742 -0.2546152 -0.13050242 -0.113263726 -0.007260297 0.25678334 -0.2662172 0.01287015 0.2938111 0.034397863 -0.07714052 -0.0067505483 -0.6342884 0.17921065 0.20132433 -0.19501625 -0.53466415 -0.027919585 0.14566033 0.18797337 0.04670652 -0.14411937 -0.10881726 0.19761081 -0.09004111 -0.153636 0.07506409 -0.023965904 -0.09297966 0.2965684 -0.5218097 -0.052089844 0.08461971 -0.5854386 0.021758987 0.1195202 0.14592916 -0.34439793 0.20838962 -0.24556309 0.35624465 0.1475637 0.39397788 0.26929644 -0.04735267 -0.57797766 -0.099910825 -0.0036582733 0.25045502 -0.13831747 -0.011300865 -0.06161793 0.16197568 -0.099222034 -0.41427928 0.16113108 0.5787576 -0.05555891 -0.15955244 -0.13327779 0.27567402 0.103215136 -0.110569455 0.13919416 0.17060544 -0.10298672 0.037773274 0.033086613
위험관리 0.3155304 0.086622015 0.847491 -0.22190589 -0.2541976 -0.47595885 -0.14186774 0.17593499 0.12936899 0.43803412 0.15082191 -0.25359398 -0.016039446 0.0040705763 -0.041903723 -0.04779844 -0.24042204 0.45593518 0.14445326 0.22679321 -0.21002813 0.08501008 -0.0756773 -0.55349153 0.5857364 0.22897187 0.21037802 -0.3464226 -0.38980404 -0.098487176 -0.16123487 -0.3861287 -0.3131354 -0.27877566 -0.14272413 -0.12636323 -0.0059427563 0.2940001 -0.29025668 0.019447463 0.3255185 0.04563587 -0.081572145 -0.005184864 -0.6984561 0.19849814 0.22326326 -0.22126876 -0.5903654 -0.025323218 0.1629544 0.21790178 0.05947319 -0.16706176 -0.1189199 0.20969209 -0.09362513 -0.16513096 0.06782954 -0.029563516 -0.09531355 0.3191807 -0.56901914 -0.052530278 0.0906044 -0.63272107 0.020697633 0.13417906 0.15607509 -0.38332108 0.23370029 -0.27314854 0.38898996 0.15178174 0.4296911 0.28713557 -0.049479265 -0.62254846 -0.11069391 -0.00055899523 0.2688293 -0.15421794 -0.020153739 -0.0674777 0.1741679 -0.109055474 -0.46567464 0.1703969 0.62876916 -0.06280293 -0.17026833 -0.14685903 0.30479723 0.104493715 -0.12130192 0.14018123 0.18651327 -0.11266629 0.040256318 0.039556995
개요 0.14790498 0.031937398 0.38318816 -0.10217486 -0.118899696 -0.22034986 -0.07115518 0.075432815 0.048760097 0.20344849 0.06876116 -0.114781365 0.0009377422 -0.0031721394 -0.02104178 -0.013581379 -0.09616048 0.19703336 0.06510491 0.10605425 -0.08994727 0.04859372 -0.046505112 -0.24214794 0.26137114 0.10545005 0.089898214 -0.1552443 -0.17322727 -0.045203686 -0.06587095 -0.17082755 -0.13599113 -0.12537214 -0.06884857 -0.059854813 -0.01024734 0.122497335 -0.12207515 0.01909494 0.15926896 0.024153478 -0.04958017 0.0062142317 -0.3009034 0.08432985 0.1001828 -0.08769474 -0.2519142 -0.014071057 0.07933761 0.10126516 0.018836427 -0.077488974 -0.06439544 0.08906773 -0.0517326 -0.07914095 0.04190323 -0.0124471225 -0.04220423 0.14964403 -0.2632578 -0.037775386 0.036270242 -0.2770766 0.004957975 0.04758178 0.07862209 -0.16696523 0.105767936 -0.12654856 0.18295227 0.05508146 0.1919996 0.12824717 -0.015943099 -0.27427265 -0.05655982 -0.012844361 0.11319366 -0.050313227 0.006523798 -0.016526422 0.085889414 -0.05061344 -0.19964232 0.09359792 0.27632883 -0.024466347 -0.06787426 -0.06438871 0.13848546 0.04857064 -0.05663309 0.06162659 0.080530845 -0.05429409 0.028214145 0.01014073
재무 0.24414268 0.06392319 0.646756 -0.17488493 -0.19178371 -0.36716065 -0.10506933 0.12740089 0.10239426 0.33989683 0.120081805 -0.18700904 -0.00945004 -0.0039118296 -0.025401408 -0.043483112 -0.18560854 0.35319284 0.11440677 0.17768382 -0.1644213 0.06973098 -0.059208144 -0.4219438 0.45007277 0.16652533 0.16623461 -0.26347327 -0.298318 -0.07359044 -0.11641278 -0.30172166 -0.23534615 -0.20958816 -0.1114904 -0.10198128 -0.00736779 0.22600122 -0.22067995 0.010622048 0.2542623 0.026083902 -0.061031174 -0.009101993 -0.5321882 0.15514982 0.1679601 -0.17065126 -0.45370167 -0.018438177 0.12078145 0.16440916 0.04275839 -0.12331829 -0.093397185 0.16267285 -0.07749954 -0.1221711 0.058436375 -0.021532847 -0.0769725 0.24098457 -0.44640198 -0.040515374 0.07244838 -0.48844597 0.021421757 0.10444569 0.12567227 -0.2941314 0.17644204 -0.20953317 0.30456966 0.11855318 0.32888997 0.22494985 -0.03985884 -0.48308516 -0.08470719 -0.004993962 0.2091164 -0.1241368 -0.012839892 -0.05307108 0.12935986 -0.08199508 -0.3604317 0.13420199 0.48264885 -0.048447672 -0.1320131 -0.1122828 0.22872274 0.08036831 -0.09377511 0.10598041 0.13272886 -0.08764488 0.024599206 0.029397156
사업 0.31372187 0.086079806 0.8619854 -0.22826608 -0.2613569 -0.48196492 -0.14520232 0.17287704 0.1382934 0.44557655 0.14845109 -0.25678176 -0.012806214 0.0023815723 -0.03828413 -0.052485198 -0.2511162 0.4561082 0.13819237 0.23460934 -0.20667349 0.09028715 -0.08573489 -0.5603595 0.6019994 0.2237761 0.21530892 -0.34900156 -0.3926863 -0.106135175 -0.15707591 -0.39433408 -0.31692794 -0.28379178 -0.13924076 -0.13092631 -0.005058412 0.29401234 -0.29674622 0.012978649 0.32546926 0.04474104 -0.09079835 -0.0034067258 -0.7055968 0.19732305 0.22218184 -0.21938469 -0.59873927 -0.033715982 0.15218812 0.21666516 0.054928645 -0.15918891 -0.12587586 0.21388201 -0.09617196 -0.16997011 0.078044064 -0.025007565 -0.09695518 0.32596466 -0.58450747 -0.05521246 0.085087396 -0.6420619 0.02515761 0.13193774 0.16760732 -0.3853082 0.23117018 -0.2747126 0.3927302 0.16297682 0.4323625 0.30056852 -0.0572958 -0.6330178 -0.115313366 -0.008089774 0.2790024 -0.1525525 -0.022367338 -0.07207512 0.1748238 -0.09763845 -0.46570888 0.16690293 0.6331779 -0.05770636 -0.16874275 -0.14165114 0.30637556 0.11275102 -0.13393678 0.15025786 0.1779869 -0.11772562 0.037917312 0.04265445
대응 0.20975317 0.061611433 0.5816353 -0.15196949 -0.17827746 -0.33179358 -0.098432675 0.121535525 0.094417416 0.30930954 0.106785685 -0.17753631 -0.008821076 0.0059220474 -0.032468855 -0.030553436 -0.16170815 0.31137305 0.09584847 0.15935893 -0.14769281 0.056424115 -0.049051773 -0.38688192 0.40159756 0.15930124 0.15085952 -0.23826165 -0.269849 -0.07381657 -0.10541032 -0.26700258 -0.20450266 -0.18594052 -0.10310067 -0.08491125 -0.009389903 0.2016892 -0.20671456 0.015209677 0.23113924 0.02210746 -0.061789587 -0.007593894 -0.48412898 0.13296123 0.15794699 -0.14618264 -0.41213462 -0.026381724 0.11606121 0.14982727 0.044115692 -0.11704646 -0.08112074 0.14249302 -0.07011583 -0.11178264 0.057876147 -0.021502981 -0.07183606 0.22394453 -0.39639235 -0.041460015 0.061590414 -0.4418135 0.02248975 0.09064241 0.118735515 -0.26057953 0.1664966 -0.18451163 0.27545226 0.10775407 0.30041313 0.19929837 -0.032386333 -0.43991563 -0.07197619 -0.0036382831 0.18841855 -0.107034214 -0.012618988 -0.04226625 0.121342555 -0.07081944 -0.31056577 0.12183429 0.44348207 -0.046456527 -0.11511656 -0.102674775 0.21096869 0.076442055 -0.08460292 0.10486831 0.13047925 -0.077264085 0.027488153 0.033614077
대한 0.29348296 0.0845741 0.8092471 -0.2149823 -0.24708444 -0.4515277 -0.13304818 0.16486526 0.1289546 0.4243329 0.145244 -0.2352862 -0.008203134 -0.0029725365 -0.04111242 -0.04357287 -0.22720039 0.43162423 0.14239559 0.21735732 -0.19960089 0.08406577 -0.07697087 -0.5305024 0.5605643 0.21453811 0.20054704 -0.32398856 -0.3631926 -0.09368219 -0.14437383 -0.37460145 -0.2914015 -0.25621563 -0.13569549 -0.11690198 -0.011803425 0.27896225 -0.28010175 0.014943881 0.31373274 0.04239754 -0.08249621 -0.0021923736 -0.660972 0.19062282 0.21043636 -0.20177586 -0.56416315 -0.023713535 0.1517114 0.20802206 0.060822744 -0.15954916 -0.11596224 0.20593412 -0.09170595 -0.1529798 0.074009724 -0.02951927 -0.09942951 0.30118328 -0.54609627 -0.059534468 0.086857215 -0.61127615 0.02481308 0.12322896 0.14987268 -0.36386195 0.22358423 -0.24894187 0.36824912 0.14566003 0.40841168 0.28212556 -0.043951884 -0.5942243 -0.10074185 -0.0062782792 0.26079485 -0.13948323 -0.014404965 -0.0659989 0.16993791 -0.10311062 -0.43427685 0.16717887 0.59635097 -0.05629287 -0.16651303 -0.1340221 0.2879133 0.10243243 -0.11649515 0.1366507 0.17435642 -0.1179525 0.0395589 0.037427112
경영 0.3169137 0.08980778 0.8446205 -0.2261147 -0.2542566 -0.48082423 -0.1416046 0.17670785 0.1365423 0.4440327 0.15208012 -0.25488105 -0.006478484 -5.6174125e-05 -0.034972027 -0.052749842 -0.23725574 0.45306695 0.14623676 0.23165342 -0.21045057 0.0806935 -0.08471812 -0.55387795 0.5939052 0.22767821 0.21874836 -0.34542358 -0.38896558 -0.10624438 -0.1594956 -0.39563802 -0.3107403 -0.27517006 -0.14581244 -0.12450799 -0.011466817 0.2869063 -0.28709188 0.016222691 0.32574028 0.0475028 -0.081694804 -0.0013467557 -0.6967669 0.195806 0.2276022 -0.22119012 -0.59277564 -0.028454838 0.15787645 0.21806243 0.06378232 -0.16519587 -0.12633623 0.2099595 -0.094353035 -0.16921186 0.070416674 -0.028562004 -0.096049465 0.3239432 -0.5716228 -0.06291566 0.0827568 -0.6338382 0.019935356 0.13370402 0.15886772 -0.38202867 0.23026253 -0.27157557 0.39407736 0.15696362 0.4278378 0.28765428 -0.049411956 -0.63054496 -0.105399266 -0.0019733661 0.2667519 -0.149064 -0.015421442 -0.066975705 0.17555119 -0.10050012 -0.45662966 0.16922964 0.625506 -0.057013012 -0.17235234 -0.14525941 0.29972702 0.103722885 -0.12407437 0.14215665 0.17742592 -0.11774085 0.03728459 0.04261425
수익 0.20553508 0.048090152 0.5479641 -0.14328955 -0.17827074 -0.30344173 -0.09776797 0.11707342 0.08263469 0.29074654 0.099031314 -0.15958132 -0.0027082097 -0.006647964 -0.032491058 -0.032563612 -0.14851166 0.29574117 0.099563345 0.15480247 -0.1388124 0.060643 -0.060179673 -0.35610944 0.38101918 0.14387114 0.13607693 -0.22589597 -0.2459409 -0.06505753 -0.10105507 -0.25212857 -0.19512887 -0.1828054 -0.102266125 -0.084367946 -0.0080616055 0.19232911 -0.18265359 0.011719909 0.22271053 0.032389943 -0.058534652 0.0014902297 -0.44373938 0.11920544 0.14333975 -0.13594791 -0.38099018 -0.01174029 0.10737941 0.14099495 0.040316373 -0.102659896 -0.0855442 0.13830698 -0.068122074 -0.11023491 0.049689993 -0.02601035 -0.062072568 0.20263846 -0.37994155 -0.047250185 0.053585805 -0.41784987 0.015430989 0.07556957 0.112678975 -0.24180606 0.15016054 -0.16904481 0.2603223 0.097049385 0.27558795 0.19393171 -0.035211306 -0.40764245 -0.073659755 -0.0011096194 0.17481798 -0.08979312 -0.010953691 -0.03498766 0.11667251 -0.07415802 -0.3016286 0.1251005 0.40435672 -0.03859314 -0.10709122 -0.10270217 0.20087337 0.065279484 -0.07480555 0.097894825 0.11163533 -0.0809428 0.03300303 0.021520833
방안 0.16513418 0.04584934 0.46491322 -0.12138442 -0.14459121 -0.25796697 -0.08258808 0.09773312 0.06756025 0.24119835 0.08557417 -0.13473797 -0.0064348276 0.0016820079 -0.024736525 -0.022541774 -0.12517808 0.24172096 0.07974463 0.12637685 -0.10839015 0.048301116 -0.041331265 -0.3017415 0.32133788 0.12913123 0.12153933 -0.18945937 -0.21414286 -0.056039575 -0.08749223 -0.20713496 -0.16066848 -0.1540467 -0.084626324 -0.06565616 -0.0038883372 0.15138066 -0.15116905 0.0065182936 0.17729077 0.023323625 -0.04866676 0.0044476623 -0.37756258 0.0986469 0.12610559 -0.11214188 -0.31133455 -0.019402437 0.09160754 0.116847165 0.023446474 -0.09312983 -0.07061227 0.1182855 -0.056615002 -0.09151974 0.047452785 -0.013598617 -0.058275796 0.18045986 -0.3161743 -0.029626513 0.051366013 -0.34545633 0.014280822 0.07151138 0.08497818 -0.20570429 0.12013055 -0.15255831 0.21756622 0.08121042 0.23641618 0.16208231 -0.020913139 -0.33285546 -0.06538314 -0.009571402 0.14280406 -0.07940082 -0.008316587 -0.030602338 0.0939993 -0.058951166 -0.25315568 0.103914626 0.34809506 -0.028947908 -0.087493 -0.075835496 0.15808943 0.055872455 -0.07147134 0.07483618 0.09651376 -0.06677935 0.022749014 0.021086542
발생 0.30206108 0.084909126 0.8148468 -0.22438234 -0.24199033 -0.4611534 -0.14272165 0.16378598 0.13548389 0.431455 0.14532922 -0.24191566 -0.012196132 -0.007791349 -0.03807434 -0.048191823 -0.23803139 0.4329899 0.13910109 0.22579007 -0.20590375 0.07515285 -0.07856172 -0.5342379 0.57392865 0.21264844 0.21032716 -0.32815292 -0.3765507 -0.098052934 -0.14853507 -0.37433505 -0.29260284 -0.26926973 -0.1304528 -0.12284964 -0.001445118 0.2816369 -0.28471226 0.011678186 0.3129735 0.040699046 -0.07609099 -0.008298846 -0.67855173 0.19299965 0.2164703 -0.20741045 -0.56514114 -0.030158306 0.14708026 0.21306174 0.057008132 -0.16464981 -0.12125565 0.20468979 -0.09321661 -0.16594161 0.06885176 -0.028157394 -0.09866512 0.31297588 -0.55489236 -0.05455935 0.077250235 -0.6113316 0.026359202 0.12319144 0.15704222 -0.36331987 0.22061078 -0.26078016 0.37732583 0.15415211 0.41911456 0.28105736 -0.04870414 -0.6065156 -0.104081236 0.0010634051 0.26324815 -0.14545831 -0.021030856 -0.059011262 0.16947466 -0.10173021 -0.45007035 0.165281 0.6019815 -0.060029518 -0.16091503 -0.13816825 0.2963985 0.1059725 -0.1243096 0.13773273 0.17201002 -0.110526584 0.039598446 0.043597978
활동 0.25713816 0.0709463 0.697132 -0.18694304 -0.21363877 -0.38863745 -0.11016361 0.1448143 0.10431491 0.36272717 0.12818526 -0.19965194 -0.014234865 0.0037885166 -0.035798192 -0.039504394 -0.199479 0.37403038 0.12098733 0.18523337 -0.17143312 0.06563193 -0.06350272 -0.45004836 0.47983378 0.18559366 0.17172599 -0.27839285 -0.31305924 -0.0849058 -0.12478542 -0.31666732 -0.24984458 -0.2209777 -0.11830802 -0.108385384 -0.003821323 0.24150418 -0.2320312 0.015599617 0.26713794 0.028195545 -0.07099954 -0.01049357 -0.56850183 0.16324727 0.18207784 -0.17375945 -0.4821857 -0.022732148 0.13060397 0.17857026 0.05141688 -0.13074976 -0.104280464 0.16903624 -0.085542805 -0.13378336 0.0655104 -0.025706863 -0.08557968 0.2674578 -0.46300954 -0.041134875 0.06615343 -0.5273338 0.024185112 0.1002789 0.1357235 -0.3064536 0.19458483 -0.22202997 0.31556645 0.12651809 0.35261628 0.24355695 -0.045829352 -0.5164769 -0.09020859 -0.0074349246 0.22048023 -0.121468484 -0.015755441 -0.057877637 0.14043504 -0.08491116 -0.38213068 0.13699886 0.5192813 -0.053299863 -0.14475103 -0.11983214 0.25195515 0.08244241 -0.10345456 0.11552291 0.14887822 -0.09814034 0.039109364 0.033014957
가지 0.2661226 0.07629472 0.71199954 -0.19401711 -0.21097244 -0.39757672 -0.120454945 0.1440801 0.11517084 0.3746197 0.122848764 -0.20457256 -0.015803833 -0.0001413611 -0.034855604 -0.043012597 -0.20685445 0.38078153 0.12384601 0.1922795 -0.17624952 0.07597368 -0.06984652 -0.4684304 0.4903753 0.18613651 0.17612049 -0.28587022 -0.321538 -0.08348504 -0.12949222 -0.32033536 -0.2583616 -0.23513767 -0.12084371 -0.1044438 -0.013127783 0.24393906 -0.24789596 0.021514455 0.27803105 0.03861078 -0.066444 -0.009813427 -0.58469003 0.16635025 0.18258561 -0.17981295 -0.49767497 -0.026932832 0.12815885 0.1835101 0.04721825 -0.13287151 -0.106439084 0.18107688 -0.08717041 -0.14179525 0.06654736 -0.02857147 -0.08317007 0.2698753 -0.48345464 -0.043468192 0.076301634 -0.5339656 0.018525807 0.106629156 0.13437201 -0.32397956 0.18938102 -0.22757094 0.33310032 0.1278506 0.3632427 0.24652508 -0.048295856 -0.52266604 -0.094208546 -0.008218299 0.22919223 -0.12326399 -0.017699037 -0.050289046 0.14861643 -0.091331534 -0.39211607 0.14230426 0.525933 -0.052778944 -0.14573148 -0.1220996 0.25956777 0.09009393 -0.10972458 0.11878379 0.1480882 -0.09632997 0.0330472 0.027055997
목표 0.24720395 0.068553604 0.65974796 -0.18383 -0.19382553 -0.37063017 -0.115030974 0.13734691 0.10993464 0.34854156 0.11971842 -0.19546042 -0.007568374 -0.007997032 -0.031251866 -0.040585265 -0.19116807 0.36088607 0.10772407 0.17120817 -0.15963227 0.07234193 -0.06740723 -0.43058 0.46586388 0.17468645 0.16710274 -0.26634058 -0.29657012 -0.08433639 -0.12832975 -0.31066418 -0.24512911 -0.22154538 -0.109799296 -0.09839941 -0.010424805 0.22038798 -0.22814031 0.019049155 0.25851774 0.02802726 -0.06838391 -0.0020864806 -0.53955364 0.15197599 0.17171241 -0.16715974 -0.46130058 -0.028235747 0.11971113 0.16820389 0.04003556 -0.13020256 -0.09895662 0.17092952 -0.07116622 -0.13222799 0.06114923 -0.01815941 -0.07113793 0.24671552 -0.45214114 -0.049112115 0.073924825 -0.50533855 0.014077897 0.09760206 0.12759107 -0.2913632 0.18467301 -0.20563737 0.30442291 0.11577411 0.34218425 0.2244329 -0.043167133 -0.49605674 -0.077576004 0.0015427583 0.2183865 -0.12668687 -0.017392384 -0.05859185 0.13267133 -0.0874807 -0.3573432 0.13130312 0.48832473 -0.046994984 -0.1401879 -0.104641 0.23938562 0.07970984 -0.10182935 0.11354198 0.14739123 -0.09933178 0.032114867 0.024813946
요인 0.21989383 0.053856257 0.6079164 -0.15346983 -0.17340185 -0.3289382 -0.10095481 0.114743896 0.10615091 0.3181877 0.09521128 -0.18663792 0.0003385983 -0.006001347 -0.037922405 -0.036575355 -0.17956509 0.3283899 0.092692174 0.16828702 -0.14698489 0.058917694 -0.059713714 -0.38425428 0.42069194 0.15301007 0.14969969 -0.2521713 -0.2737908 -0.07579909 -0.102127746 -0.27177426 -0.22892459 -0.18679562 -0.089278504 -0.08786616 0.0029345208 0.2019466 -0.19549939 0.0034439226 0.23075615 0.019245999 -0.063058406 -0.010745704 -0.49366516 0.14758372 0.16071825 -0.15115613 -0.4246329 -0.017350862 0.11449352 0.15173854 0.05138138 -0.10738923 -0.08277918 0.14482483 -0.068653405 -0.11270667 0.05455769 -0.009832235 -0.0770675 0.22093403 -0.39918324 -0.044504467 0.0664159 -0.45615405 0.017638283 0.10159245 0.11696803 -0.27167118 0.16241102 -0.18187508 0.27859744 0.11691547 0.3011962 0.2053227 -0.042905368 -0.45356053 -0.074976586 -0.0054819975 0.19786483 -0.10779688 -0.009377206 -0.042755906 0.12395362 -0.060241316 -0.33126372 0.11755723 0.4426084 -0.034927126 -0.1201293 -0.10846361 0.21137796 0.08236376 -0.09009517 0.095795736 0.12035056 -0.08108599 0.02057126 0.036980517
방법론 0.07031707 0.015424555 0.19667323 -0.048418418 -0.06888553 -0.108503744 -0.036808167 0.0447259 0.030897956 0.1127495 0.044191938 -0.054711852 -0.0030709803 -0.005783365 -0.005613405 -0.0081508085 -0.057093617 0.10601353 0.03356013 0.052743647 -0.049668465 0.027507147 -0.020509126 -0.12784061 0.13827588 0.047847595 0.043648254 -0.07903006 -0.08292177 -0.020343235 -0.034853466 -0.08424924 -0.067149065 -0.07295825 -0.0391001 -0.03323618 -0.009104726 0.072446875 -0.06797749 0.011525698 0.08744288 0.01234853 -0.016239967 -0.0010606727 -0.16241698 0.034896977 0.047310147 -0.042679187 -0.13930467 -0.0017794907 0.03852539 0.047627397 0.0062802155 -0.043798033 -0.033478536 0.04831717 -0.020818133 -0.03406843 0.023757113 -0.014074186 -0.024897086 0.07871566 -0.14548728 -0.018032346 0.024306279 -0.14805113 0.0075888387 0.027275464 0.045813814 -0.09407493 0.057404123 -0.060728855 0.091141626 0.032403488 0.09840506 0.07389623 -0.010993864 -0.14992951 -0.027357087 -0.0062732873 0.058183193 -0.024763262 0.0017123169 -0.007359673 0.046589237 -0.025973799 -0.10723864 0.049352337 0.14459598 -0.01815875 -0.033008493 -0.036513258 0.07062435 0.028734388 -0.022756943 0.035430126 0.041130714 -0.024304906 0.012068872 0.0126458425
전사 0.23761474 0.062699184 0.6351526 -0.1726642 -0.1912029 -0.36159223 -0.10355257 0.12839955 0.10655542 0.33694622 0.11179178 -0.18979393 -0.014420364 0.0025068545 -0.028815532 -0.03500963 -0.17901959 0.33148497 0.1145768 0.163646 -0.15475199 0.06517173 -0.05594798 -0.4226606 0.43485036 0.16279587 0.16022047 -0.26222843 -0.28795302 -0.08153101 -0.1216622 -0.2843112 -0.22652867 -0.20864466 -0.10272127 -0.09971041 -0.010348847 0.2219223 -0.2221329 0.010063937 0.24259971 0.025982428 -0.06749881 -0.0010857775 -0.52514964 0.14774059 0.16811699 -0.16625664 -0.4461215 -0.02587485 0.11365677 0.16165629 0.03492169 -0.12701702 -0.09052452 0.15429802 -0.075351916 -0.12111998 0.05478858 -0.028925348 -0.06836785 0.24147874 -0.42665035 -0.049848158 0.065796554 -0.47505397 0.018119343 0.09971333 0.1276111 -0.2829081 0.17237893 -0.19749044 0.2976264 0.11887301 0.32347253 0.21833731 -0.03392907 -0.47651628 -0.0891524 -0.0010867071 0.20137805 -0.12176573 -0.019752802 -0.05283176 0.12804559 -0.07832745 -0.34773228 0.12605442 0.47624156 -0.04862936 -0.12316017 -0.09950717 0.22879115 0.0865386 -0.09784364 0.10710265 0.12891729 -0.0929263 0.034217983 0.036177788
사례 0.21302147 0.059043035 0.56568575 -0.14491545 -0.17268723 -0.3173805 -0.09144265 0.113277584 0.08854785 0.30595362 0.10388763 -0.1627179 -0.011039603 0.0035341033 -0.03227714 -0.03475722 -0.16933337 0.29808572 0.08578148 0.14588098 -0.14022818 0.057079285 -0.05841314 -0.3668972 0.3957438 0.15654916 0.14786014 -0.22144742 -0.25762334 -0.07014594 -0.09972876 -0.26696146 -0.21304315 -0.1940399 -0.096319064 -0.08875492 -0.019514661 0.20244595 -0.1856624 0.011116153 0.22217432 0.028963408 -0.05984115 0.008966824 -0.4630315 0.12659217 0.14903873 -0.14919169 -0.40024036 -0.02080815 0.11657066 0.14716096 0.028698165 -0.11438969 -0.08773401 0.13624343 -0.059419222 -0.10755534 0.05210423 -0.01480083 -0.059063405 0.21694161 -0.39890447 -0.034701336 0.049853403 -0.41827944 0.015549058 0.08212767 0.11477904 -0.25335568 0.15397066 -0.18591459 0.26530153 0.09932232 0.29383692 0.1934867 -0.0295587 -0.41305235 -0.06748422 0.0011183062 0.17514624 -0.10869315 -0.0051415856 -0.042502105 0.124998204 -0.07021211 -0.31071436 0.108178034 0.41657308 -0.043811932 -0.11521171 -0.09208239 0.20522758 0.06991309 -0.08280978 0.10445492 0.12098973 -0.08159916 0.031221021 0.0233511
효과 0.24399687 0.066515096 0.66328275 -0.17511225 -0.20257114 -0.3769815 -0.115361296 0.13057502 0.10601291 0.34266636 0.11190453 -0.19291192 -0.013115346 0.0017687603 -0.030434255 -0.039758727 -0.19305678 0.35235792 0.10956899 0.17352322 -0.16673853 0.065075494 -0.06255143 -0.43528152 0.45500135 0.1742723 0.17323539 -0.26686206 -0.29759747 -0.08055753 -0.12113822 -0.3013446 -0.24550037 -0.21397011 -0.1150314 -0.10093434 -0.010570566 0.2226879 -0.22218253 0.019976405 0.26078555 0.03691093 -0.069410525 -0.0014669725 -0.548213 0.15238677 0.17435515 -0.16724226 -0.46060154 -0.02714084 0.12845626 0.17393088 0.04637854 -0.1276701 -0.1011311 0.17030537 -0.07600384 -0.12935261 0.060146905 -0.021888655 -0.07471318 0.2513649 -0.44764397 -0.038711667 0.06528312 -0.50267464 0.018849818 0.103658095 0.13208659 -0.2982172 0.18271394 -0.20751315 0.30883813 0.12296505 0.3418394 0.22613508 -0.042104524 -0.4913386 -0.08635757 -0.0027271856 0.21360713 -0.12266555 -0.010591321 -0.053879976 0.13618453 -0.086580165 -0.35642067 0.1284788 0.49195486 -0.043157287 -0.13438515 -0.11297422 0.23255096 0.083747454 -0.10307152 0.109624974 0.14384373 -0.0892566 0.03499401 0.030564457
정보 0.28379023 0.08463882 0.7849188 -0.20999776 -0.24006635 -0.44026566 -0.13389435 0.15545298 0.12329911 0.4101771 0.13303857 -0.2382748 -0.0050885486 -0.0035466277 -0.032991864 -0.04852736 -0.22133653 0.42046475 0.13426383 0.2169484 -0.19733931 0.07886929 -0.07963171 -0.51503605 0.5438548 0.21026777 0.19837092 -0.32408196 -0.36364934 -0.09866954 -0.14006817 -0.36120832 -0.2856349 -0.25606275 -0.13174236 -0.11412273 -0.011006285 0.27213907 -0.2718621 0.018897409 0.2977921 0.04318833 -0.073432386 -0.0017290169 -0.6501244 0.18251576 0.20540854 -0.20576446 -0.5496626 -0.025789356 0.14464651 0.20611638 0.057222262 -0.15721188 -0.10967539 0.19882968 -0.09678625 -0.15740447 0.0657157 -0.025065998 -0.08755511 0.30043826 -0.53249377 -0.055002797 0.08662533 -0.5916909 0.022160875 0.11565356 0.14553387 -0.3490249 0.2096113 -0.24585545 0.35819718 0.14538021 0.4028733 0.26892203 -0.04708018 -0.58393097 -0.10143243 -0.00787009 0.25914958 -0.14337058 -0.012280179 -0.06692028 0.16429508 -0.09906569 -0.4293905 0.15446796 0.5789739 -0.048903085 -0.16320542 -0.12840392 0.2824175 0.092831224 -0.12227633 0.12743637 0.16553159 -0.11604796 0.034568723 0.035658374
가능성 0.2565785 0.07675016 0.71083826 -0.18823537 -0.21462819 -0.40280038 -0.12033387 0.13906124 0.112202644 0.3702546 0.12581879 -0.20863755 -0.007428349 -0.005933658 -0.028451994 -0.04860606 -0.20728193 0.38219374 0.12736174 0.19559379 -0.1738668 0.072187185 -0.0744136 -0.46358258 0.49840468 0.19262423 0.17946208 -0.286171 -0.32341734 -0.07982989 -0.13619876 -0.33443323 -0.25585374 -0.2374857 -0.11820633 -0.10683708 -0.009753842 0.2402785 -0.2376301 0.009794867 0.26945898 0.038734227 -0.074439585 -0.0023892508 -0.5874519 0.15948547 0.1904932 -0.18713084 -0.4926633 -0.025549017 0.13180843 0.17847413 0.05088811 -0.13531916 -0.09733117 0.18074115 -0.08295931 -0.14448254 0.06383413 -0.028391885 -0.09036905 0.27122083 -0.48826757 -0.046518113 0.07386976 -0.536861 0.014490344 0.106613874 0.14146598 -0.3207807 0.18825907 -0.22866826 0.33376244 0.13668999 0.3576035 0.25361538 -0.042715516 -0.5246914 -0.08976923 -0.0048758965 0.22596115 -0.13021846 -0.017407713 -0.050862778 0.15075864 -0.0854855 -0.39290854 0.14238387 0.5244288 -0.045527928 -0.14698294 -0.115674935 0.25538915 0.09501693 -0.11394329 0.12769139 0.15649292 -0.10092773 0.040084694 0.031311445
계속 0.13624732 0.04253945 0.35703602 -0.097708575 -0.11147794 -0.19719897 -0.05696672 0.07305389 0.059529696 0.19738021 0.06447349 -0.10077824 -0.0029323322 0.0024283486 -0.020894855 -0.014244337 -0.09939247 0.18244664 0.052716594 0.08742393 -0.082952976 0.036035392 -0.030464388 -0.23859474 0.25077668 0.1011757 0.08939687 -0.14263201 -0.1644202 -0.038804024 -0.06627039 -0.16187888 -0.12379386 -0.12379462 -0.060800944 -0.05049721 -0.011570177 0.1266775 -0.11912637 0.018054545 0.1428368 0.017293144 -0.039170794 0.007400488 -0.2903581 0.07114219 0.09725597 -0.093218155 -0.24352947 -0.016228901 0.07163186 0.082708366 0.01670118 -0.06360611 -0.050128944 0.08992783 -0.03604861 -0.065641016 0.031269647 -0.014294888 -0.04126836 0.12919763 -0.24857637 -0.025155094 0.034647964 -0.27008557 0.007227062 0.050607596 0.06544057 -0.15702164 0.09863494 -0.10708919 0.16025774 0.06150541 0.18057053 0.11500188 -0.017163318 -0.25448972 -0.049995147 0.0001470331 0.10830763 -0.05804508 0.0002850372 -0.032339152 0.07676509 -0.05044121 -0.18736722 0.07090184 0.26789737 -0.02902192 -0.074000515 -0.06272184 0.121915035 0.038779434 -0.04805577 0.07222919 0.08066726 -0.04290231 0.01585933 0.009738289
시장 0.31993246 0.09212909 0.8599649 -0.23223212 -0.26424438 -0.48759118 -0.14090699 0.17581452 0.13068855 0.44823873 0.14654231 -0.25938046 -0.009999695 0.00155955 -0.043772563 -0.057170708 -0.2471899 0.45775005 0.14768057 0.23047842 -0.21092466 0.082033135 -0.08777904 -0.5585487 0.59636503 0.22285591 0.21931258 -0.35017526 -0.3953932 -0.10336069 -0.15809923 -0.3915504 -0.3133326 -0.27518925 -0.14827718 -0.12582918 -0.009093871 0.28979796 -0.297955 0.017326327 0.32794732 0.048850805 -0.08380326 -0.007506658 -0.7124032 0.19886988 0.22882596 -0.21979198 -0.60133547 -0.027947266 0.15654686 0.21926795 0.06457752 -0.16624191 -0.12277098 0.21001469 -0.09966868 -0.16473068 0.07109318 -0.02436338 -0.09744386 0.32935324 -0.58417386 -0.055590156 0.08827686 -0.6432267 0.026248347 0.12631732 0.16622043 -0.38205287 0.23236148 -0.26926708 0.39298025 0.15817437 0.4409198 0.30193678 -0.05676625 -0.6385337 -0.11330059 -0.0014280858 0.2799582 -0.15194504 -0.021092305 -0.06325858 0.17547987 -0.10894246 -0.47541866 0.17473799 0.63891745 -0.05785885 -0.17367189 -0.14219154 0.30358073 0.11312451 -0.12731259 0.14887793 0.18434937 -0.12101514 0.04313237 0.045346785
차원 0.23308215 0.0669112 0.6373307 -0.17735492 -0.19497548 -0.36495385 -0.11096217 0.12976757 0.110111766 0.34060782 0.11436072 -0.18169917 -0.009243994 -0.0023436265 -0.026025234 -0.042934038 -0.18355496 0.34521303 0.10555505 0.17395799 -0.15781052 0.060563885 -0.06144725 -0.42172194 0.4477948 0.1755057 0.15721881 -0.2604957 -0.287721 -0.07736716 -0.11793696 -0.28901473 -0.228281 -0.21495992 -0.11161399 -0.09817323 -0.011864217 0.21443535 -0.21651831 0.00819082 0.24505478 0.0353893 -0.056830566 -0.005788051 -0.5191672 0.14280975 0.17548582 -0.16799015 -0.4514463 -0.027456248 0.12267453 0.1577307 0.045313906 -0.1293525 -0.08902529 0.16271645 -0.08031998 -0.12681337 0.061553784 -0.027604582 -0.08249066 0.23701976 -0.44133154 -0.037335683 0.07068766 -0.48190042 0.02149984 0.091538295 0.120596215 -0.29282302 0.17863733 -0.20698082 0.29348478 0.119275324 0.32797083 0.22446789 -0.043975834 -0.47495395 -0.08531761 -0.009172206 0.20359863 -0.12172783 -0.008031622 -0.049585152 0.13864055 -0.083671264 -0.3466515 0.12933458 0.4823356 -0.038804736 -0.13714598 -0.1067606 0.23116758 0.08482593 -0.1040651 0.11826684 0.1393304 -0.08468047 0.03261661 0.032753788
수행 0.2499414 0.07145149 0.67961866 -0.18492225 -0.20239797 -0.38564643 -0.116013765 0.13349763 0.10749796 0.3503425 0.11983625 -0.20729296 -0.012642109 -0.0026109063 -0.038526956 -0.035483636 -0.1941878 0.36641458 0.121199325 0.17859095 -0.161432 0.07015428 -0.06540104 -0.44858688 0.46629947 0.18054397 0.17035195 -0.2736216 -0.31475076 -0.08626016 -0.13087523 -0.3176541 -0.2492503 -0.22578292 -0.11494933 -0.10628842 -0.0017467155 0.23124732 -0.23628025 0.013371559 0.26497474 0.03662999 -0.06289817 -0.0091829775 -0.5605624 0.15799443 0.18256287 -0.17000456 -0.47432685 -0.018622147 0.13388392 0.17730716 0.040578425 -0.13759017 -0.094081 0.17158552 -0.07850828 -0.13422938 0.06371412 -0.021714306 -0.07474275 0.26399437 -0.45779017 -0.03987846 0.07390591 -0.5160856 0.019920645 0.10411775 0.12686893 -0.31315592 0.19100632 -0.2203535 0.31001246 0.12733938 0.3443476 0.23415792 -0.03858412 -0.50918186 -0.08711722 -0.009409299 0.22433925 -0.12783931 -0.010399637 -0.06069403 0.14523835 -0.08485284 -0.37700808 0.13633206 0.5125427 -0.0493551 -0.13385354 -0.11475451 0.24081011 0.09074415 -0.102209784 0.11623809 0.14520457 -0.09762805 0.034075707 0.028835194
측정 0.28201365 0.07716722 0.7500102 -0.19777538 -0.22616217 -0.41849798 -0.12966728 0.14931642 0.12247584 0.3970037 0.12774575 -0.22664048 -0.007083631 -0.0018718153 -0.034987673 -0.04941915 -0.21136644 0.39790857 0.13243364 0.19595656 -0.18096146 0.07985908 -0.07551403 -0.4915393 0.5237327 0.20162968 0.18461898 -0.30631697 -0.34769785 -0.09313873 -0.1344025 -0.34824726 -0.2703198 -0.24540918 -0.1302764 -0.117385514 -0.0028711145 0.26180097 -0.2604512 0.021396926 0.2858473 0.039168302 -0.07267725 -0.0054057213 -0.61529523 0.17403522 0.19838838 -0.1937658 -0.52208257 -0.02949809 0.14242646 0.18883836 0.053143777 -0.14823115 -0.112834744 0.1882278 -0.09209987 -0.14858799 0.0695981 -0.025312062 -0.08634107 0.28186962 -0.50913024 -0.05466626 0.077236585 -0.56272006 0.019624667 0.11001733 0.13965227 -0.33563572 0.20610252 -0.23230204 0.35042936 0.13995734 0.38496703 0.2567441 -0.04314493 -0.55854404 -0.097400494 -0.008562486 0.23768951 -0.13824648 -0.020276817 -0.056063328 0.1545383 -0.09083262 -0.41664255 0.15402918 0.5605547 -0.050262623 -0.15089457 -0.12216371 0.2668947 0.09650708 -0.11254022 0.1300626 0.16192359 -0.10690362 0.032610945 0.03854337
성과 0.24766526 0.07184951 0.6674556 -0.17293607 -0.2042311 -0.37399203 -0.116025604 0.13813215 0.10499068 0.34631008 0.12303172 -0.190233 -0.012888301 -0.00084481697 -0.024853196 -0.043141868 -0.1870811 0.357839 0.11229209 0.174369 -0.15879141 0.06349149 -0.060736783 -0.43338257 0.4599414 0.17342018 0.1697294 -0.26906887 -0.29835868 -0.07322242 -0.12927784 -0.30736756 -0.23429307 -0.21812399 -0.10855816 -0.101593584 -0.0057046385 0.2317735 -0.2213685 0.013036824 0.25248703 0.03348152 -0.06947104 -0.0026892973 -0.53902286 0.15034597 0.1765223 -0.17161965 -0.46722806 -0.02815239 0.124165736 0.16735472 0.049335442 -0.13382643 -0.09677046 0.16278468 -0.07753705 -0.12722367 0.053677354 -0.026263298 -0.084037036 0.24621093 -0.45400763 -0.038757775 0.07447107 -0.49408266 0.021590257 0.09632102 0.1225301 -0.2919093 0.17803383 -0.20755377 0.30502084 0.12374117 0.3307146 0.23606376 -0.033906117 -0.49361572 -0.08283817 -0.004169725 0.20920783 -0.1243436 -0.010843271 -0.056929085 0.13845134 -0.08253269 -0.3606725 0.13717139 0.48590353 -0.04390175 -0.13033457 -0.11044863 0.23284826 0.084310055 -0.10119447 0.11566343 0.14335822 -0.097573936 0.025958013 0.033187184
통제 0.22194506 0.05818616 0.6034691 -0.16880731 -0.18346877 -0.33876285 -0.0969234 0.122342736 0.101100355 0.31057903 0.1070052 -0.17297928 -0.009898995 0.005765505 -0.022972131 -0.038280018 -0.16865946 0.3214745 0.10863815 0.16182527 -0.1446499 0.06372299 -0.054209087 -0.39842483 0.42354363 0.16429518 0.14868431 -0.23935834 -0.2723788 -0.06910745 -0.11458126 -0.27237493 -0.2216875 -0.19564204 -0.10171021 -0.0974567 -0.0050220205 0.20778187 -0.20355676 0.005927676 0.22737548 0.026346054 -0.060843553 -0.0067402394 -0.5028676 0.13688093 0.1641295 -0.15498243 -0.4211558 -0.02579283 0.115195386 0.16058922 0.045450643 -0.12190141 -0.09019786 0.15536542 -0.06775744 -0.12491961 0.051665947 -0.016734306 -0.069626555 0.2300607 -0.41171664 -0.042851336 0.056610685 -0.45877227 0.014693331 0.087592766 0.11040057 -0.26658216 0.16492489 -0.19507287 0.2766735 0.11600211 0.31221026 0.21415041 -0.034015838 -0.44831717 -0.07785133 -0.0072319647 0.19930555 -0.11187181 -0.018479694 -0.052051783 0.1271773 -0.073152125 -0.33340514 0.116889864 0.44548 -0.046831626 -0.12782298 -0.10412264 0.21521126 0.077173315 -0.08812297 0.1058381 0.13163179 -0.077320725 0.029570064 0.033494703
시스템 0.29208684 0.08057761 0.78855294 -0.21456684 -0.24382588 -0.4362961 -0.13795078 0.16175039 0.120251454 0.4125739 0.13764784 -0.2326413 -0.0069012456 -0.0049284543 -0.034562863 -0.038848206 -0.22722575 0.4220273 0.13556255 0.21137816 -0.1919763 0.07648408 -0.067441605 -0.51182556 0.5368558 0.20716497 0.19243994 -0.31398508 -0.36078322 -0.09567547 -0.13897336 -0.3603558 -0.2856211 -0.2516888 -0.12695818 -0.11194872 -0.0100024445 0.26972005 -0.27270636 0.016904507 0.29601863 0.031667486 -0.07327956 -0.00483706 -0.6501399 0.17920062 0.20378798 -0.1971158 -0.54913324 -0.03180651 0.15033889 0.19927576 0.053922784 -0.1469819 -0.111427575 0.19771467 -0.09441299 -0.15545435 0.06642397 -0.02596819 -0.09070752 0.30012572 -0.524601 -0.053356845 0.081738696 -0.5828587 0.020241974 0.123217404 0.15183307 -0.35348335 0.21046834 -0.2427568 0.3560358 0.14460938 0.39165613 0.27117142 -0.046135567 -0.57863456 -0.10187657 -0.0038119783 0.25548995 -0.13557778 -0.019741895 -0.06496022 0.15600663 -0.0946956 -0.4212598 0.15900488 0.57517767 -0.05100472 -0.1595303 -0.12692602 0.28213188 0.09550094 -0.116917185 0.132628 0.17288712 -0.11463031 0.042783007 0.042162873
통합 0.16403869 0.04968951 0.44934198 -0.121517554 -0.14071126 -0.25103733 -0.07044535 0.093878455 0.07729591 0.23972005 0.08398408 -0.13072138 -0.0031596362 -0.005639938 -0.024944006 -0.022642713 -0.12334394 0.23553653 0.07425872 0.12104941 -0.11079094 0.04734508 -0.036137022 -0.2945501 0.31210324 0.117290385 0.106356405 -0.18034552 -0.20418647 -0.05378946 -0.08213713 -0.19966346 -0.16129151 -0.14686416 -0.07812454 -0.06798895 -0.005687434 0.15415867 -0.14851691 0.008831723 0.17676446 0.020297116 -0.048277322 -0.007936731 -0.36449903 0.10260096 0.11804838 -0.11606342 -0.31061086 -0.016482158 0.09142029 0.117838435 0.024997339 -0.08439043 -0.06671318 0.10875206 -0.04991138 -0.090017445 0.03686865 -0.018007347 -0.053524252 0.16488814 -0.309811 -0.03721263 0.049920373 -0.33463302 0.010740529 0.06266002 0.088952534 -0.19743603 0.12828282 -0.14106336 0.20562342 0.08476402 0.22280577 0.15176684 -0.021881362 -0.33766252 -0.061804462 0.0025501903 0.14898519 -0.08073347 -0.01058102 -0.03950171 0.093847424 -0.057079524 -0.24007325 0.089599945 0.33745056 -0.029880429 -0.086011484 -0.06948608 0.15630865 0.054345466 -0.07311996 0.08267903 0.09132383 -0.057478968 0.027351508 0.020487333
사적 0.23570094 0.06741197 0.6563844 -0.16990383 -0.20382427 -0.36319476 -0.11051414 0.13719384 0.10818801 0.3469005 0.118820265 -0.19397558 -0.010933353 -0.0044301827 -0.03309811 -0.041098632 -0.18669604 0.34755176 0.11266975 0.1791424 -0.16528526 0.060528163 -0.06011479 -0.43013203 0.45297962 0.17470007 0.16132374 -0.2632773 -0.29605848 -0.07287879 -0.12450984 -0.3056488 -0.23902929 -0.21260732 -0.10486786 -0.0998682 -0.0045161503 0.22391357 -0.21808736 0.013144169 0.2537995 0.031207103 -0.061380267 0.0007217967 -0.5395819 0.14590795 0.16735439 -0.16473132 -0.46004745 -0.024502885 0.11759392 0.16348797 0.04119464 -0.12795167 -0.09436853 0.16320455 -0.072553694 -0.12433319 0.05710285 -0.018493935 -0.07776157 0.25258958 -0.44639248 -0.048155714 0.067628324 -0.49527904 0.012566765 0.10334303 0.124611996 -0.2950507 0.18232965 -0.20812517 0.29802662 0.11587261 0.33551046 0.22173831 -0.037655715 -0.48764235 -0.08878683 -0.0039431234 0.2073098 -0.12211289 -0.011944553 -0.054404292 0.14007315 -0.08722365 -0.3511294 0.13376014 0.478989 -0.044641342 -0.13838534 -0.10546973 0.23818693 0.08248114 -0.10381702 0.114030056 0.14112039 -0.09234898 0.02677814 0.030954836
손실 0.29098698 0.08428912 0.7883828 -0.21333638 -0.24037127 -0.4374663 -0.13961746 0.15434906 0.13008587 0.40888715 0.14274609 -0.23032169 -0.0067427317 -0.0047063297 -0.029065698 -0.046266053 -0.22564824 0.42406157 0.13190943 0.21907708 -0.1951178 0.07153567 -0.0782164 -0.51356006 0.5479271 0.21559465 0.19942318 -0.31833896 -0.358392 -0.09425784 -0.1533251 -0.36209345 -0.2811235 -0.25886598 -0.1343481 -0.11959028 -0.0055705123 0.26929536 -0.27444324 0.011303922 0.29925707 0.046354633 -0.08372242 -0.0038396474 -0.6495919 0.18054353 0.20867586 -0.20596634 -0.5442002 -0.026321536 0.14676648 0.20150281 0.05954422 -0.15049998 -0.111052044 0.2003943 -0.09171299 -0.15310483 0.06766691 -0.027163846 -0.09671346 0.30128983 -0.5329765 -0.049412265 0.07619081 -0.5944605 0.014604069 0.12263869 0.15416521 -0.3503625 0.21736933 -0.2542637 0.36351743 0.14543079 0.39505723 0.27963337 -0.051883604 -0.5858322 -0.09715011 -0.0024904008 0.24830213 -0.15019965 -0.016030207 -0.058772076 0.16499014 -0.08970437 -0.430619 0.1560275 0.58009464 -0.054127447 -0.15406053 -0.1258065 0.2813404 0.1019644 -0.11383949 0.13365716 0.16367997 -0.11650458 0.041489195 0.032753315
관련 0.27300864 0.07740784 0.7276422 -0.19681218 -0.21342541 -0.41183606 -0.12322689 0.15098369 0.12073333 0.38001204 0.12667201 -0.20975193 -0.011938319 -0.0016410317 -0.033614688 -0.04916842 -0.20351012 0.38675958 0.123210035 0.19714831 -0.17898856 0.07000858 -0.06712467 -0.47553366 0.4997354 0.19614412 0.18428026 -0.29729068 -0.32881096 -0.08745176 -0.13257541 -0.33318484 -0.2627884 -0.24144676 -0.12604327 -0.10449842 -0.005882944 0.24969923 -0.24818686 0.020869557 0.28114948 0.03971035 -0.06798384 -0.0098924795 -0.6018188 0.17320915 0.19511136 -0.19103257 -0.5084176 -0.026752727 0.13215815 0.19009802 0.049740054 -0.14067866 -0.10176208 0.18037318 -0.08419917 -0.14482172 0.064875305 -0.019805076 -0.08260099 0.2789322 -0.4891465 -0.046958994 0.08218305 -0.5520464 0.017996116 0.110546 0.13445695 -0.32747144 0.19432072 -0.2254668 0.33636895 0.13518879 0.3725303 0.2549378 -0.046742987 -0.5394942 -0.09833254 -0.006831001 0.2324179 -0.13690372 -0.01785496 -0.058854505 0.14788377 -0.08993496 -0.39458922 0.14427494 0.5429446 -0.05524993 -0.15077752 -0.121317424 0.25849938 0.09542051 -0.10773871 0.12738203 0.15618938 -0.10490521 0.029068734 0.038337186
수준 0.23402676 0.062242124 0.641674 -0.1765249 -0.1995672 -0.36468837 -0.10479273 0.127197 0.10759433 0.333677 0.11091961 -0.18956201 -0.0035716048 -0.0053909444 -0.034878016 -0.044119433 -0.18845244 0.34927043 0.11290925 0.17572878 -0.15419358 0.065124884 -0.06321344 -0.42071784 0.44997475 0.167746 0.15985374 -0.26077992 -0.29740277 -0.077062905 -0.12065288 -0.29784808 -0.23807453 -0.20745955 -0.1036286 -0.101461396 -0.0006582097 0.22286797 -0.2147446 0.009045912 0.25065285 0.03469826 -0.059071243 -0.00014315445 -0.5282626 0.14682584 0.16706257 -0.16512069 -0.45153797 -0.017313814 0.12484883 0.16222486 0.041372813 -0.12308676 -0.091696896 0.1615347 -0.07703779 -0.124489084 0.055794097 -0.02490949 -0.071245514 0.24352536 -0.43885678 -0.041595813 0.06751801 -0.48558116 0.018317932 0.09677078 0.11778421 -0.29085395 0.17612231 -0.20805414 0.30097726 0.12128428 0.3261297 0.22851667 -0.03391874 -0.47971806 -0.08386306 0.0005601869 0.20732139 -0.11354296 -0.01772521 -0.0533013 0.13415061 -0.08328383 -0.35640457 0.13210756 0.47528753 -0.048457496 -0.13013646 -0.10572542 0.22458896 0.08152136 -0.09913285 0.10989811 0.13286495 -0.08852434 0.0296172 0.030992428
운영 0.20621641 0.055466257 0.5529977 -0.14938149 -0.17374717 -0.31402388 -0.09906775 0.117153384 0.08600943 0.29398826 0.0968718 -0.16398923 -0.0023618513 -0.006865458 -0.022874953 -0.027178729 -0.15478791 0.29466537 0.09286123 0.14334486 -0.1320222 0.050949737 -0.05545625 -0.35971206 0.38697597 0.14895786 0.14012398 -0.22259688 -0.255184 -0.06290694 -0.10394437 -0.25708115 -0.20402895 -0.17629789 -0.09677216 -0.0781588 -0.0020663599 0.18407477 -0.19659767 0.0064122514 0.21134712 0.022654178 -0.059897028 -0.009141934 -0.4513485 0.12264615 0.14767228 -0.14521153 -0.3869156 -0.022129506 0.10661091 0.1452329 0.041113418 -0.10962853 -0.07605843 0.14077127 -0.06581275 -0.11357956 0.04510046 -0.021852193 -0.06477584 0.21057361 -0.3811799 -0.03797579 0.058200553 -0.41483837 0.016383257 0.08189412 0.10437049 -0.25054395 0.1542277 -0.1708807 0.25976846 0.107463546 0.27615294 0.19673051 -0.0275806 -0.405718 -0.07038838 -0.008585962 0.17550498 -0.101678975 -0.009413888 -0.04442555 0.11475936 -0.068816826 -0.30124974 0.11183338 0.41278037 -0.035677742 -0.10910016 -0.09499319 0.20226596 0.071700506 -0.077876806 0.098211385 0.11835708 -0.07661428 0.024113221 0.031908553
식별 0.14758874 0.04450402 0.41539538 -0.10550422 -0.12952502 -0.226314 -0.06653494 0.08030434 0.061062075 0.22113137 0.076018505 -0.117402285 -0.0044456627 0.00556896 -0.021689711 -0.018781371 -0.11257708 0.22231005 0.072618894 0.113305755 -0.09821053 0.039780412 -0.034201693 -0.27387214 0.28738877 0.10757503 0.100637026 -0.15978499 -0.1819781 -0.0531132 -0.08039892 -0.18884973 -0.14813982 -0.13201822 -0.07481196 -0.06639381 -0.0057067536 0.1367707 -0.14250031 0.01302625 0.16568764 0.025430612 -0.037533972 -0.0007539868 -0.33222356 0.08525212 0.10351896 -0.100213505 -0.28317675 -0.020291025 0.08394743 0.09904898 0.024439126 -0.08191586 -0.05854281 0.10018203 -0.04250791 -0.07904968 0.041326664 -0.02325462 -0.054367747 0.16159469 -0.28600335 -0.032864552 0.03922218 -0.30743447 0.01407876 0.06427988 0.08438222 -0.18775328 0.11547673 -0.12641893 0.18570359 0.075091355 0.20619857 0.1420572 -0.024463648 -0.3075488 -0.05898936 -0.0030351728 0.13060515 -0.0687554 -0.009283062 -0.02576435 0.0809885 -0.05053234 -0.22151741 0.085075125 0.3089899 -0.024171531 -0.08472155 -0.06801168 0.1509573 0.05191856 -0.064218216 0.075672746 0.08908236 -0.05205118 0.0167294 0.024201952
가치 0.23705454 0.0743622 0.6589644 -0.17481366 -0.19676344 -0.3631031 -0.11030424 0.13408384 0.09838714 0.3415895 0.11485213 -0.19218473 -0.0056622247 -0.00017108808 -0.036385577 -0.032502223 -0.18138197 0.3538112 0.10973768 0.17478095 -0.15764871 0.065544344 -0.064491965 -0.42966992 0.45219278 0.17848332 0.16692582 -0.27090436 -0.2959657 -0.08048612 -0.12387453 -0.30486977 -0.24061368 -0.21261697 -0.104537845 -0.10350232 -0.0029116552 0.22561905 -0.21400052 0.018275619 0.24920799 0.030791609 -0.061646067 0.0016413155 -0.5406928 0.14515837 0.17366937 -0.17075612 -0.4614935 -0.022280315 0.12003324 0.16175538 0.040949218 -0.12515074 -0.09721194 0.15966012 -0.07450334 -0.12828584 0.061677214 -0.022911778 -0.07914514 0.25345448 -0.44126758 -0.038298074 0.07165571 -0.48985532 0.014587832 0.09682456 0.12087932 -0.2955048 0.17943637 -0.20718357 0.3006706 0.123394206 0.33481285 0.22466536 -0.044506848 -0.4810611 -0.08556667 -0.0007876134 0.20863469 -0.118276425 -0.010706663 -0.05477945 0.14205667 -0.07762132 -0.36002573 0.13066085 0.48242238 -0.04477224 -0.13863778 -0.104517244 0.22755283 0.08478967 -0.09839167 0.11249707 0.14428255 -0.09213247 0.035159893 0.032558773
기능 0.27281576 0.07700315 0.7279317 -0.19306773 -0.21917242 -0.40423948 -0.121040195 0.1513796 0.11201535 0.3779074 0.13019681 -0.21421066 -0.005606355 0.0033050128 -0.030907393 -0.04536293 -0.20365214 0.39303225 0.12558998 0.19315162 -0.18361291 0.072245784 -0.06828898 -0.48080182 0.5011509 0.19901145 0.18468928 -0.29287714 -0.33718672 -0.09051369 -0.14080349 -0.3365098 -0.27032506 -0.23851916 -0.12344081 -0.10938155 -0.003670976 0.24669856 -0.2535994 0.017163238 0.28265887 0.032833364 -0.06877942 -0.010169455 -0.60109603 0.17152345 0.19004375 -0.18531528 -0.5069096 -0.022037333 0.13155948 0.18590094 0.047464292 -0.13719279 -0.10074408 0.1845714 -0.07737239 -0.147191 0.057890497 -0.028197166 -0.08128651 0.27942482 -0.4980363 -0.042512298 0.08038694 -0.5521912 0.01806191 0.11126495 0.14084052 -0.3265142 0.2001069 -0.22889133 0.33765528 0.139118 0.36708948 0.2584545 -0.044688642 -0.54558516 -0.090827085 -0.0051910663 0.23621897 -0.13080652 -0.01810616 -0.055475965 0.14684133 -0.08671429 -0.39510468 0.14291815 0.54339826 -0.044803448 -0.14804828 -0.11881676 0.25897348 0.091528416 -0.105721086 0.11832385 0.16112283 -0.10325995 0.036449578 0.03158965
위해 0.27539504 0.07114561 0.73200005 -0.19386391 -0.21673352 -0.41838202 -0.12129577 0.15415402 0.12002346 0.37864047 0.13321045 -0.21672827 -0.010351817 3.42037e-05 -0.03847826 -0.037947275 -0.20840934 0.3909671 0.1297111 0.19915001 -0.17676014 0.06927281 -0.075250246 -0.47910994 0.5054138 0.19361113 0.18440796 -0.29275462 -0.3349221 -0.09118942 -0.13507095 -0.34078705 -0.2665814 -0.24485487 -0.11893837 -0.1047572 -0.0033935944 0.24973962 -0.24589092 0.017225249 0.28855002 0.036548372 -0.07142294 -0.008460246 -0.6046505 0.17220488 0.19314533 -0.18151762 -0.5088795 -0.028558612 0.14055042 0.192627 0.051085185 -0.14064151 -0.11235392 0.19023465 -0.088197604 -0.14620173 0.06614106 -0.026945543 -0.0845726 0.2750561 -0.49723154 -0.05539007 0.07952663 -0.55457985 0.020342087 0.1138618 0.14478143 -0.32736552 0.1946986 -0.22836973 0.33467567 0.13663492 0.37303472 0.25257438 -0.047653034 -0.54592776 -0.09338718 -0.0028714489 0.23746258 -0.12618804 -0.01499706 -0.055333216 0.15126166 -0.09142448 -0.4032409 0.15109123 0.53807753 -0.044762257 -0.15191993 -0.12708148 0.26055983 0.08785403 -0.10971306 0.12639119 0.1605629 -0.10389771 0.037880342 0.033258565
통해 0.261007 0.07006692 0.70327324 -0.18341401 -0.20986827 -0.39227405 -0.115772314 0.13854441 0.10591535 0.36099982 0.12237914 -0.21197943 -0.00957077 0.0028108296 -0.028320692 -0.035909627 -0.19429101 0.37384632 0.114732064 0.18585366 -0.17222475 0.06659931 -0.06141122 -0.45588312 0.4802715 0.18712343 0.17329766 -0.28349948 -0.31338823 -0.082648516 -0.13383381 -0.31786886 -0.25469255 -0.22809504 -0.12185286 -0.102644205 -0.008481189 0.23996955 -0.23581377 0.0133904535 0.26844168 0.03856086 -0.07304433 0.00046614194 -0.5791941 0.16009484 0.17986792 -0.17654896 -0.4883616 -0.02561023 0.13080634 0.18202241 0.044249363 -0.13085718 -0.10031767 0.179165 -0.08022482 -0.13395268 0.05661038 -0.023952056 -0.07992235 0.261557 -0.46827236 -0.04924864 0.07159021 -0.5296594 0.018179137 0.106554426 0.13397011 -0.30951563 0.183465 -0.21508376 0.32128754 0.13194174 0.3511205 0.23620431 -0.046956953 -0.5207358 -0.09478234 -0.00170015 0.22552608 -0.13043858 -0.0113813095 -0.052950185 0.14662276 -0.08156793 -0.38572836 0.13842411 0.51781857 -0.04437331 -0.1481092 -0.11678717 0.25242102 0.08780379 -0.10790488 0.121231504 0.15133858 -0.09463323 0.03740597 0.036213193
선진 0.108944185 0.038099576 0.29717812 -0.0714188 -0.096693575 -0.16198449 -0.041092336 0.06712337 0.040110428 0.15616912 0.047944117 -0.0778673 0.0033838064 -0.008427296 -0.0071123247 -0.008177956 -0.0905626 0.16350453 0.038969994 0.08308739 -0.07041118 0.031337854 -0.02445892 -0.1875 0.20062585 0.0855975 0.081530645 -0.11773533 -0.13270323 -0.032983493 -0.057258487 -0.1329425 -0.106748655 -0.095928 -0.059664533 -0.048407424 -0.016090812 0.09787132 -0.09125135 0.019119078 0.12425133 0.023809142 -0.025184829 0.008944487 -0.24234658 0.05640392 0.08386714 -0.07647084 -0.20659067 -0.0055829384 0.06645759 0.0731099 0.012648781 -0.0497125 -0.040280662 0.0663673 -0.02478276 -0.056399174 0.022737665 -0.0021433032 -0.023438822 0.11828156 -0.20824929 -0.013455141 0.02276256 -0.2084527 0.002329852 0.03567206 0.06267859 -0.12974717 0.073104225 -0.09962836 0.13024715 0.040857013 0.15136814 0.096998915 -0.01987135 -0.20566006 -0.03759453 0.00096670777 0.08605699 -0.05716965 0.006868429 -0.019687273 0.057212774 -0.046010885 -0.15800507 0.052542638 0.22009102 -0.022483759 -0.051785044 -0.042970628 0.10590794 0.028183011 -0.04571747 0.051181406 0.065408096 -0.034978718 0.010159254 0.01186997
역할 0.21919598 0.057649985 0.5834604 -0.16160527 -0.18003337 -0.3275223 -0.09404862 0.11674813 0.0864903 0.30821735 0.10688399 -0.17045549 -0.008352601 -0.0023639945 -0.025614247 -0.030119853 -0.16661315 0.31175134 0.095181465 0.15624963 -0.14489235 0.05804414 -0.059778944 -0.38196748 0.39970145 0.15330178 0.15343219 -0.23892383 -0.25938126 -0.075425036 -0.11365677 -0.26707238 -0.21311808 -0.18690428 -0.10049727 -0.09038398 -0.006296001 0.20191365 -0.19837606 0.014930442 0.23046158 0.03266083 -0.058069915 -0.0024998365 -0.48598173 0.12819307 0.14826815 -0.1514044 -0.40218547 -0.016619554 0.107299805 0.1430977 0.04482154 -0.11125908 -0.08017333 0.15101267 -0.06098391 -0.11199347 0.04988694 -0.01653071 -0.07275512 0.22796126 -0.39060116 -0.038424365 0.05738445 -0.43786094 0.017151162 0.08922591 0.11142046 -0.2589877 0.16287525 -0.1921854 0.27104 0.11281821 0.29677448 0.20060925 -0.033599198 -0.43562296 -0.08174956 -0.005534032 0.19425178 -0.10521008 -0.01903814 -0.05222141 0.11937572 -0.076391764 -0.31739974 0.11623873 0.4368587 -0.040156554 -0.119779594 -0.10424044 0.2107471 0.07763068 -0.08324941 0.1027191 0.12190971 -0.07544957 0.031585217 0.028030666
보고 0.27329993 0.075495265 0.74873924 -0.19949946 -0.22088239 -0.4204162 -0.12740186 0.15041542 0.118676394 0.39330631 0.1373176 -0.22528626 -0.008949991 -0.0028148228 -0.030976273 -0.048608772 -0.21553376 0.39723113 0.13170703 0.19561209 -0.18754035 0.07065262 -0.07479807 -0.48968592 0.51397115 0.19453005 0.18741882 -0.30502874 -0.33691376 -0.087891094 -0.13388604 -0.34218788 -0.27466944 -0.2396657 -0.12988563 -0.11350519 -0.0050716735 0.259332 -0.25945175 0.011543534 0.28328288 0.03904213 -0.06769488 -0.00072806334 -0.6090581 0.17341365 0.20051941 -0.19414526 -0.52530247 -0.025844652 0.14265166 0.19449264 0.05135285 -0.14423506 -0.1021652 0.1909624 -0.081595525 -0.1433657 0.06709109 -0.028366068 -0.08890142 0.28399903 -0.51217216 -0.05128568 0.07474442 -0.56461084 0.02041456 0.11084696 0.13791034 -0.3351039 0.2059062 -0.2398785 0.34300464 0.14199753 0.38055232 0.26026794 -0.044653464 -0.55539644 -0.09663516 -0.0067427526 0.2458111 -0.13198926 -0.01199997 -0.05592029 0.15048897 -0.092395954 -0.40842792 0.14546208 0.5511631 -0.05296653 -0.15031391 -0.12830658 0.26601294 0.098910555 -0.113964096 0.1261453 0.16429172 -0.10022618 0.040686592 0.035876945
환경 0.2310064 0.06527231 0.6151077 -0.16249396 -0.18865204 -0.34406552 -0.09762855 0.12846388 0.09809275 0.32596743 0.105429485 -0.18157281 -0.005716509 -0.004883446 -0.029005487 -0.032080192 -0.18202648 0.33170676 0.10955661 0.17210989 -0.15793927 0.062379245 -0.06385311 -0.3989177 0.43594763 0.16073893 0.15707065 -0.24722922 -0.28420395 -0.074045986 -0.12084235 -0.2830708 -0.22855717 -0.20067668 -0.09704604 -0.08839327 0.00015047345 0.21517147 -0.21253748 0.0090435 0.24114725 0.033995587 -0.056354366 -0.001964874 -0.50725293 0.14838836 0.16618854 -0.15345947 -0.42920724 -0.015907574 0.111282304 0.15734328 0.03936753 -0.12281325 -0.094431855 0.15745886 -0.06786305 -0.119591095 0.047556523 -0.014449447 -0.06779973 0.23475416 -0.41735485 -0.037720535 0.06661133 -0.46794498 0.01776781 0.10158128 0.12057245 -0.274706 0.16138053 -0.19793606 0.2873179 0.10932282 0.3185223 0.21398492 -0.031769816 -0.45803532 -0.08464159 -0.003103986 0.1949834 -0.11411133 -0.01149715 -0.046210438 0.12414499 -0.07944622 -0.332778 0.13043715 0.46391708 -0.039278276 -0.13043135 -0.106689215 0.22007039 0.07849033 -0.09679195 0.105784565 0.13547525 -0.09059498 0.027353482 0.026166925
기술 0.27391 0.071970984 0.74694663 -0.1940569 -0.22456855 -0.41574156 -0.12619072 0.14734125 0.116089866 0.38400552 0.12570223 -0.22079499 -0.00841564 -0.0058066295 -0.03959292 -0.04096699 -0.20908411 0.3965221 0.1270112 0.20169266 -0.17692979 0.07045287 -0.07282582 -0.48881012 0.5094263 0.20152691 0.18621813 -0.29550883 -0.33870912 -0.08503692 -0.1355062 -0.33737504 -0.27418563 -0.24094853 -0.11979211 -0.10864093 -0.0076824846 0.25530675 -0.2534308 0.021933956 0.29126558 0.032944556 -0.07841989 -0.0044394974 -0.6105912 0.17298785 0.198143 -0.18858317 -0.51534164 -0.02364525 0.13726306 0.19341773 0.04798923 -0.14624538 -0.10578527 0.18067048 -0.08343304 -0.14203103 0.06847955 -0.023702942 -0.08162307 0.2818685 -0.5059983 -0.0535023 0.07354166 -0.55603063 0.016838828 0.109136604 0.14036147 -0.32679054 0.1968789 -0.23922019 0.34152862 0.13311861 0.37007192 0.2526366 -0.048568144 -0.550851 -0.10237525 -0.0028995515 0.23720285 -0.13057545 -0.019359857 -0.05492768 0.15787658 -0.09474336 -0.40609586 0.15001996 0.5505057 -0.044983443 -0.15256308 -0.12941481 0.26529816 0.09246223 -0.10743576 0.12578917 0.15736608 -0.10800611 0.03657551 0.03106577
개발 0.27500415 0.08034623 0.7359983 -0.1973316 -0.22100927 -0.40670317 -0.12574771 0.14982769 0.11679255 0.38701785 0.12919086 -0.2182283 -0.010073143 -0.001464626 -0.038175505 -0.038128637 -0.205272 0.3895026 0.12795775 0.20188858 -0.18009514 0.070319556 -0.06592518 -0.47438946 0.5061448 0.19416481 0.18088864 -0.29830438 -0.33164242 -0.0886481 -0.13476251 -0.3409174 -0.26772502 -0.23753373 -0.12566589 -0.11288547 -0.010265216 0.2544396 -0.24739917 0.016830357 0.2842516 0.031526092 -0.067491546 -0.010438733 -0.6035106 0.1632901 0.19047323 -0.18434058 -0.50893897 -0.022725808 0.13999422 0.18922168 0.04814139 -0.1452848 -0.1010872 0.18840417 -0.087758675 -0.1426359 0.06420441 -0.01955197 -0.08711521 0.2816371 -0.50207037 -0.046001412 0.078074835 -0.54899377 0.02237406 0.115668796 0.14301991 -0.32596898 0.1939687 -0.22807087 0.3356454 0.1312326 0.37021154 0.24803983 -0.045946203 -0.5429721 -0.09394131 0.0024969499 0.23959896 -0.12722118 -0.013336756 -0.06260528 0.1546227 -0.08424985 -0.40396845 0.14550991 0.5352413 -0.051420756 -0.14841217 -0.122084 0.26096317 0.086363465 -0.11594064 0.11973102 0.15320082 -0.10399571 0.032918863 0.03442791
변화 0.22414148 0.061325233 0.60800046 -0.1643981 -0.18243109 -0.33639035 -0.10020496 0.12793031 0.093865655 0.31307995 0.10273041 -0.18030904 -0.002665609 0.00027207175 -0.02494997 -0.039507065 -0.17264476 0.3190032 0.10226926 0.16608387 -0.14440006 0.06496763 -0.054323684 -0.39862087 0.4183066 0.15614009 0.14839423 -0.24576561 -0.27396703 -0.068457976 -0.111391135 -0.28092206 -0.22015801 -0.19780026 -0.09772719 -0.09665783 -0.00940143 0.20159678 -0.2006219 0.0056529613 0.2280419 0.03688092 -0.05984131 0.0011857069 -0.4929678 0.14304094 0.15809512 -0.15612054 -0.42515454 -0.020467738 0.107951604 0.15817103 0.04509851 -0.12316815 -0.08862292 0.14497508 -0.06983941 -0.112649664 0.051715765 -0.024864398 -0.072335735 0.22325175 -0.40276396 -0.04362425 0.06023772 -0.4518009 0.015015574 0.094782695 0.111764096 -0.2687749 0.15853521 -0.1863329 0.28365552 0.10704209 0.3118827 0.21084154 -0.041189834 -0.44360316 -0.075068295 0.0011207493 0.19371982 -0.10727202 -0.013562111 -0.050366063 0.12230306 -0.06835316 -0.32395825 0.12181618 0.4448924 -0.04176523 -0.12764546 -0.099477686 0.21308465 0.07876018 -0.0940168 0.10089845 0.12948255 -0.08203309 0.034832455 0.02842719
부문 0.26778945 0.07841235 0.7181346 -0.18756719 -0.21254012 -0.39932695 -0.11646678 0.14030597 0.11890139 0.3660159 0.12144935 -0.21525607 -0.010175167 -0.0055055413 -0.0338278 -0.044720013 -0.20646933 0.38110083 0.11740049 0.1932068 -0.1722177 0.071908556 -0.066696495 -0.46190658 0.49523824 0.1881559 0.17875114 -0.2926428 -0.33032024 -0.089193836 -0.13181716 -0.32897475 -0.26645142 -0.23382816 -0.11708789 -0.1100292 -0.010925011 0.23980464 -0.2498289 0.010064786 0.27573213 0.03775498 -0.069817446 -0.010104796 -0.59286046 0.16704433 0.19027865 -0.18507555 -0.5054412 -0.024832655 0.12793855 0.17611293 0.050848 -0.14003445 -0.106426954 0.17622273 -0.07705352 -0.14063735 0.05761518 -0.022458892 -0.07993968 0.2673305 -0.48653302 -0.045376528 0.072853856 -0.5445647 0.020666508 0.105276905 0.14053948 -0.3158364 0.18884176 -0.22473773 0.32585403 0.12628709 0.3609733 0.25094983 -0.043249935 -0.5339868 -0.09707093 0.0033548942 0.23052959 -0.12532613 -0.01373266 -0.060256407 0.15103553 -0.08813298 -0.3909888 0.14012665 0.527335 -0.044408165 -0.15052147 -0.117415845 0.25274304 0.089869246 -0.10926869 0.115905486 0.15351944 -0.09887568 0.03212537 0.027017413
경우 0.26975113 0.079456456 0.74842685 -0.20488526 -0.21941166 -0.42322147 -0.12534918 0.14679167 0.12266015 0.383658 0.12575896 -0.21992835 -0.007298195 0.004214022 -0.029967166 -0.049137734 -0.21657364 0.3965283 0.12853883 0.1970258 -0.18567763 0.07344848 -0.07596903 -0.48720405 0.52021724 0.19206351 0.1921013 -0.29849398 -0.33844817 -0.08849208 -0.13735451 -0.33797148 -0.2703048 -0.24577136 -0.12052933 -0.1136307 -0.0083550075 0.2518228 -0.25096333 0.009509717 0.2851209 0.039052453 -0.0681976 0.0021541768 -0.61599475 0.16801333 0.19308917 -0.18579505 -0.5117572 -0.021385686 0.1345958 0.19504124 0.054668516 -0.1444405 -0.10528224 0.19105138 -0.08176671 -0.14588684 0.061685387 -0.023980789 -0.087158814 0.27993754 -0.50614345 -0.051868547 0.07749965 -0.55936587 0.019174328 0.11562237 0.14379758 -0.32973716 0.19867463 -0.23317863 0.34254673 0.14183727 0.38211226 0.25967973 -0.04874749 -0.5545589 -0.100023486 -0.0026547424 0.23971462 -0.12905969 -0.015246843 -0.06190788 0.15299378 -0.09471656 -0.40675503 0.15244415 0.55356556 -0.045360345 -0.1508759 -0.1241836 0.26653284 0.09591573 -0.11331792 0.1300759 0.15736187 -0.10159183 0.030401949 0.033885088
인식 0.1895612 0.0553969 0.53836244 -0.1439265 -0.15683398 -0.29304236 -0.094903305 0.109078266 0.08302425 0.2831552 0.09276986 -0.16085136 -0.0049710707 0.0003022651 -0.020954125 -0.034642793 -0.15366738 0.28458643 0.09410247 0.14769447 -0.13394803 0.050375532 -0.048767526 -0.348349 0.36724132 0.137606 0.1318183 -0.22087248 -0.2386717 -0.06822456 -0.09856544 -0.24439922 -0.19832368 -0.16989991 -0.09043482 -0.08149527 -0.003861301 0.17850347 -0.18282765 0.005963856 0.20612241 0.020325664 -0.047946043 0.0009873188 -0.43494904 0.12848088 0.1430598 -0.13584654 -0.37411118 -0.022883926 0.10239054 0.14076553 0.043023255 -0.10237146 -0.08124532 0.13539042 -0.06451834 -0.1046973 0.051442306 -0.017352 -0.067336656 0.20229328 -0.35836723 -0.03981719 0.0531644 -0.39815092 0.015694885 0.08555257 0.10305455 -0.2390177 0.14395449 -0.16428447 0.24637705 0.103741065 0.269898 0.18232487 -0.037607107 -0.40209526 -0.071264334 0.0033102636 0.17284222 -0.09625265 -0.016515605 -0.04311424 0.11422398 -0.06447112 -0.28593016 0.101946056 0.39284998 -0.039184514 -0.10620422 -0.090002045 0.19415444 0.06780621 -0.08526866 0.0874457 0.1092625 -0.072626315 0.019951163 0.026920572
내부 0.20084052 0.059820287 0.5451709 -0.1467304 -0.16316912 -0.30519843 -0.096000575 0.10891957 0.08283079 0.2817383 0.09306623 -0.15985303 -0.0076955105 -0.00509432 -0.027372377 -0.028451614 -0.15269276 0.2924978 0.08790305 0.14863753 -0.13931334 0.052730665 -0.056081463 -0.35408974 0.3787596 0.13879745 0.14208342 -0.21981643 -0.24880426 -0.062103473 -0.09454742 -0.24964984 -0.20419587 -0.17447667 -0.08735105 -0.083704874 -0.006840553 0.1833621 -0.19003254 0.00938063 0.20773503 0.02699762 -0.04863067 -0.0062406086 -0.44935814 0.13030642 0.14202267 -0.14353329 -0.38256678 -0.01967718 0.09901543 0.13983673 0.042269193 -0.10345473 -0.07794338 0.13008589 -0.06776371 -0.11149169 0.043797392 -0.013096296 -0.06627583 0.20132765 -0.3636476 -0.041150045 0.05803716 -0.4117049 0.010261345 0.08629134 0.1068116 -0.23705405 0.14133024 -0.1694699 0.25629896 0.094997704 0.27856642 0.18746954 -0.034690652 -0.403127 -0.06460983 0.0019578605 0.17971662 -0.10326894 -0.014122729 -0.039541777 0.10880315 -0.06894352 -0.29950345 0.1068142 0.40112525 -0.0334708 -0.10866534 -0.09181467 0.19759907 0.066640966 -0.08557333 0.08817094 0.10997609 -0.07470805 0.022727849 0.020102289
업무 0.26841387 0.07242187 0.7128225 -0.19566022 -0.21226427 -0.40527517 -0.12394208 0.14506134 0.113125384 0.3767254 0.12946512 -0.2162271 -0.0051116375 -0.0061137946 -0.03869698 -0.0382923 -0.20871468 0.37621495 0.12474959 0.1927855 -0.17305018 0.06804868 -0.07349496 -0.466609 0.495222 0.18538614 0.17403945 -0.28668126 -0.32552037 -0.083587 -0.13755527 -0.33466032 -0.26345798 -0.22936618 -0.12419315 -0.11097351 -0.011478857 0.24851827 -0.24450631 0.01815936 0.27562544 0.031870697 -0.064919 0.00015179702 -0.58142614 0.1697441 0.1819943 -0.18754378 -0.49356118 -0.02235153 0.13191716 0.18508914 0.042606633 -0.14327277 -0.106788605 0.18468688 -0.08239612 -0.14015847 0.059445992 -0.019392144 -0.07723901 0.26922518 -0.4891854 -0.046926234 0.079373404 -0.5354134 0.025904614 0.10517276 0.14004414 -0.31847632 0.19277771 -0.22240615 0.32623553 0.13127296 0.36527354 0.24149916 -0.04834031 -0.5367401 -0.096134655 -0.002099839 0.2289091 -0.12941833 -0.015606754 -0.059334636 0.1435565 -0.08694786 -0.39170408 0.1464696 0.5307241 -0.05155782 -0.15070246 -0.117058106 0.2558085 0.09513184 -0.107121676 0.12053245 0.14896461 -0.10074474 0.027168253 0.032753445
중심 0.2167067 0.054991864 0.5837367 -0.1556773 -0.17385206 -0.33145764 -0.09797277 0.11859738 0.09175651 0.30222365 0.10400395 -0.17630887 -0.0025900756 -0.003903762 -0.033342153 -0.029051088 -0.16746324 0.31245303 0.09248338 0.16098006 -0.13995853 0.05264326 -0.060389046 -0.38819113 0.40530655 0.15669218 0.14753805 -0.24188508 -0.26045528 -0.07287417 -0.10355811 -0.2738073 -0.2092109 -0.18726456 -0.09149888 -0.09166889 -0.012314118 0.19562887 -0.19665979 0.008313476 0.23160131 0.027863989 -0.054031387 -0.0097708255 -0.479568 0.12834959 0.15656446 -0.145263 -0.40900505 -0.0149469 0.112382084 0.1557959 0.036270604 -0.12072036 -0.08028386 0.1455107 -0.066854246 -0.118752174 0.04853842 -0.026054095 -0.06697966 0.21618897 -0.3912112 -0.03819831 0.060516953 -0.43494517 0.022100007 0.08996084 0.1114495 -0.2623712 0.16112606 -0.18534212 0.26858154 0.106341965 0.30135697 0.19420475 -0.039313614 -0.43692034 -0.07782874 -0.00076911174 0.18390837 -0.10085212 -0.015991092 -0.042675532 0.122300856 -0.07477716 -0.3216575 0.120175906 0.43926537 -0.041265205 -0.121412896 -0.09401884 0.20741563 0.077205 -0.08483673 0.10559038 0.12647286 -0.08556449 0.021941904 0.028877439
체계 0.19571243 0.04949403 0.5278234 -0.1421043 -0.1650725 -0.29849002 -0.08843982 0.10979361 0.08455459 0.27724898 0.088711224 -0.15690762 -0.011534137 -0.005549514 -0.022874553 -0.032173377 -0.15179075 0.28292352 0.094106056 0.1447703 -0.13091719 0.05183548 -0.044326507 -0.3503612 0.36190224 0.13589521 0.13145106 -0.21929426 -0.2446381 -0.069136016 -0.094838195 -0.23685455 -0.18736579 -0.17045924 -0.08903535 -0.078670114 -0.00020379474 0.17458211 -0.18426996 0.013165934 0.20865372 0.019210462 -0.051280934 -0.0023744917 -0.43838173 0.11925574 0.13901466 -0.12845673 -0.37129927 -0.020168511 0.097095065 0.13901193 0.036729794 -0.103949495 -0.0752184 0.12801203 -0.05813582 -0.102191925 0.048632815 -0.015463703 -0.062198915 0.20187911 -0.3565848 -0.034594253 0.050703745 -0.40076554 0.01261962 0.08607716 0.09990255 -0.23185064 0.14667092 -0.16873392 0.2421476 0.091976516 0.26614967 0.17783932 -0.03232335 -0.3962957 -0.06846277 -0.0055420687 0.1742657 -0.098305665 -0.013988889 -0.04620856 0.112464085 -0.06776232 -0.28764963 0.10874049 0.3961936 -0.03468451 -0.10859631 -0.08552682 0.18860699 0.06372099 -0.082270876 0.09155904 0.11644388 -0.06920683 0.0278158 0.026978128
개별 0.16480953 0.041073855 0.44550216 -0.115934215 -0.13672246 -0.2445732 -0.07566026 0.09122432 0.074979305 0.22558984 0.07421918 -0.1250301 -0.009926549 -0.0044115474 -0.022796564 -0.026895443 -0.12305129 0.23087059 0.07429249 0.113661736 -0.11273061 0.042482186 -0.046341226 -0.28565452 0.30420262 0.11992127 0.113153934 -0.17866385 -0.20384562 -0.054586634 -0.08579186 -0.19954374 -0.16518043 -0.14302504 -0.070509784 -0.065703996 -0.008876179 0.15413351 -0.15159155 0.008325321 0.17368315 0.022842465 -0.044566937 4.0912077e-05 -0.35891536 0.10102713 0.114757895 -0.115108155 -0.3037094 -0.017876571 0.07845924 0.10883962 0.030846471 -0.08005073 -0.06520252 0.10962106 -0.051162247 -0.08547422 0.041245107 -0.018499658 -0.055749778 0.16890891 -0.29910713 -0.030016785 0.043548223 -0.33130687 0.014473523 0.061900377 0.08328522 -0.20184343 0.12387516 -0.13784674 0.2026055 0.080401406 0.2212404 0.15565003 -0.025320807 -0.32481018 -0.053858552 -0.006014744 0.1436619 -0.083674915 -0.012388193 -0.038482644 0.09439659 -0.053109493 -0.23504144 0.091642894 0.32477584 -0.033655822 -0.0909507 -0.07441613 0.15366475 0.055981506 -0.0719885 0.07061687 0.09759899 -0.058223125 0.020088919 0.022975242
금리 0.2817311 0.0816713 0.7767071 -0.20993736 -0.23276664 -0.4381606 -0.12511593 0.15371482 0.12472872 0.41012168 0.13300781 -0.23185271 -0.00847024 -0.0038525164 -0.032550957 -0.0460941 -0.21840017 0.4118763 0.13312592 0.2129201 -0.1925936 0.07351024 -0.071451075 -0.5013399 0.53987736 0.20744047 0.19737601 -0.31653896 -0.35143247 -0.09308074 -0.1387362 -0.35839453 -0.28459728 -0.2575363 -0.13194613 -0.11606409 -0.011626839 0.26768094 -0.26932928 0.020529043 0.29650408 0.037861533 -0.07582927 -0.0020150573 -0.6430745 0.18437862 0.19967328 -0.20329347 -0.54397035 -0.026485372 0.1410374 0.19773737 0.0558859 -0.15437733 -0.116791956 0.1990773 -0.0854063 -0.14962006 0.068864524 -0.021606509 -0.08741395 0.2989827 -0.52440745 -0.048557628 0.07909484 -0.5868596 0.014979825 0.11683535 0.15131086 -0.3523477 0.21104842 -0.24463473 0.3585232 0.1415587 0.3949383 0.2727816 -0.05171145 -0.5785441 -0.09863481 0.002993885 0.2505247 -0.14443782 -0.02050724 -0.06663044 0.16246891 -0.099672355 -0.42212167 0.15213276 0.5759245 -0.052133903 -0.15428826 -0.13167101 0.28320163 0.09579658 -0.12093529 0.13638312 0.15992483 -0.10547831 0.039851986 0.035989348
활용 0.24839145 0.0670013 0.66912293 -0.18421476 -0.20128456 -0.38064075 -0.11704464 0.14154668 0.10272102 0.3521998 0.1219834 -0.19423595 -0.013692435 -0.0057942746 -0.03129835 -0.041520953 -0.19073544 0.35851178 0.11348436 0.17603849 -0.16178295 0.06885229 -0.061663628 -0.43430847 0.4602495 0.18090534 0.17345794 -0.26638985 -0.302926 -0.076074734 -0.12563697 -0.3118516 -0.24564613 -0.21894352 -0.11588633 -0.103322536 -0.0065131797 0.22804163 -0.22361934 0.017472023 0.25457507 0.036675055 -0.068021126 -0.007037394 -0.55643743 0.15621458 0.1777677 -0.175527 -0.46519932 -0.0264023 0.12041574 0.17370747 0.0497053 -0.13117214 -0.09328309 0.17060591 -0.08268079 -0.13092 0.058779888 -0.018139318 -0.07630463 0.25683 -0.45039016 -0.050947905 0.07126872 -0.49973872 0.018550493 0.10330919 0.12378057 -0.29911843 0.17677392 -0.20532797 0.31217098 0.11714764 0.3381413 0.23596565 -0.043736022 -0.49170136 -0.08745594 -0.0018546946 0.22012639 -0.11815105 -0.013185451 -0.05034543 0.1413978 -0.08552913 -0.3651221 0.12960815 0.49511695 -0.04544799 -0.1305537 -0.116328076 0.2366076 0.08387 -0.10198328 0.112046316 0.14227666 -0.09354804 0.035096075 0.024770614
구성 0.25653884 0.06965211 0.6815715 -0.18415166 -0.20473723 -0.38732982 -0.11139846 0.13459918 0.104653135 0.35311314 0.11636911 -0.19455692 -0.011501433 -0.0010404408 -0.029832399 -0.042805072 -0.20070586 0.36125314 0.112672485 0.1766018 -0.1662977 0.061760407 -0.06647977 -0.4486367 0.468317 0.18393408 0.17692891 -0.27252638 -0.3073656 -0.0826882 -0.12105578 -0.31569096 -0.25173286 -0.22101799 -0.113779835 -0.10351392 -0.0068361093 0.22483264 -0.23720628 0.018120063 0.26741707 0.03217063 -0.071947366 -0.00018872564 -0.55707514 0.16470787 0.18005338 -0.17437138 -0.47953653 -0.017601795 0.13080665 0.17226422 0.046443816 -0.13556202 -0.10388458 0.17353998 -0.080560476 -0.1392055 0.061302785 -0.02509969 -0.07280283 0.25636396 -0.45926565 -0.042229593 0.07038831 -0.5066899 0.02007415 0.1097727 0.13404556 -0.30791828 0.18346153 -0.21470545 0.30972666 0.12198886 0.34902158 0.23233573 -0.04016037 -0.5029952 -0.08236368 -0.0064033205 0.21319371 -0.1237752 -0.020151077 -0.053327233 0.1353149 -0.08244395 -0.37412557 0.13889924 0.50097024 -0.0528229 -0.14335911 -0.10554337 0.2389141 0.08228625 -0.09898126 0.11949166 0.14963399 -0.0892675 0.034889508 0.024871072
설계 0.18722396 0.04974139 0.5103784 -0.13628758 -0.16209272 -0.29355103 -0.078695126 0.10535399 0.0800829 0.27135327 0.09041269 -0.15053287 -0.009662895 0.0020010134 -0.021136498 -0.024078902 -0.15096591 0.28079313 0.087311246 0.13205896 -0.12201287 0.04954556 -0.041764848 -0.3373493 0.35132873 0.13412938 0.13548386 -0.20790567 -0.23802523 -0.061907757 -0.0961994 -0.24220914 -0.18455967 -0.16372284 -0.090788536 -0.08369797 0.0014452176 0.1811105 -0.17412892 0.019286783 0.20510387 0.026827533 -0.044203185 -0.010563554 -0.42378512 0.114679895 0.12898363 -0.13154443 -0.3660976 -0.018057048 0.10821239 0.12845525 0.030907614 -0.098462895 -0.078648396 0.13650993 -0.05397867 -0.09369953 0.04591152 -0.010855158 -0.056772973 0.20031774 -0.34746787 -0.037743226 0.05320461 -0.3945703 0.024458691 0.079848185 0.096948944 -0.23835589 0.1372596 -0.17394663 0.24178149 0.09380081 0.25783014 0.18023667 -0.02779077 -0.3929555 -0.061918147 -0.0009276269 0.15965822 -0.08541822 -0.017713275 -0.0426839 0.11012349 -0.06187685 -0.2751277 0.11057676 0.3901005 -0.044411555 -0.10650535 -0.08560364 0.18181188 0.06304734 -0.07740535 0.090922005 0.11933324 -0.07279277 0.026801735 0.030396836
위원회 0.21053125 0.05279583 0.5746408 -0.14898664 -0.17290455 -0.3209371 -0.09562267 0.12081261 0.09209673 0.30015978 0.102133006 -0.16265471 -0.0022335614 -0.008575421 -0.023856485 -0.033252776 -0.15957032 0.30812657 0.10046349 0.15862313 -0.13854007 0.05811149 -0.05358688 -0.37832993 0.3910676 0.14896472 0.13938938 -0.23618636 -0.26267835 -0.073590234 -0.102651596 -0.2572241 -0.20492578 -0.18715498 -0.098840125 -0.084770195 -0.0036898833 0.18867935 -0.19887969 0.015994757 0.22480507 0.021774745 -0.05696776 -0.0076985955 -0.47292235 0.1349958 0.1481837 -0.14720987 -0.3934777 -0.01531927 0.11086809 0.14189878 0.0382399 -0.11441773 -0.08206208 0.14711899 -0.06507447 -0.105587214 0.043749783 -0.021868678 -0.060618214 0.21109268 -0.3812842 -0.03559807 0.054640453 -0.4302488 0.019496754 0.083128005 0.11534137 -0.26068816 0.15266897 -0.18473148 0.26708543 0.111524366 0.29094484 0.19259396 -0.029218212 -0.4192851 -0.07834291 -0.007437816 0.18771638 -0.10816474 -0.011925233 -0.049769904 0.115767024 -0.07361909 -0.31367186 0.111117505 0.4237334 -0.041291177 -0.11882236 -0.098396 0.19974913 0.07381707 -0.08210191 0.101723514 0.12465105 -0.075866885 0.029837675 0.024217358
수립 0.18039323 0.047774665 0.49737647 -0.1348767 -0.15682633 -0.27476582 -0.086447306 0.103037134 0.07347908 0.26572502 0.090016305 -0.14686744 -0.009954187 -0.0065782485 -0.01898797 -0.027370166 -0.14210694 0.26234785 0.08249623 0.13332036 -0.12323294 0.05622846 -0.042420924 -0.31755638 0.34630775 0.13548748 0.1231118 -0.20345484 -0.22232983 -0.056293715 -0.09224704 -0.2259679 -0.17222823 -0.16532212 -0.08328887 -0.07210496 -0.00011110003 0.1721002 -0.16480875 0.015106328 0.19602978 0.017508669 -0.05677046 -0.005682552 -0.41004783 0.115686476 0.12618053 -0.12465854 -0.34421438 -0.016671944 0.088618144 0.12015329 0.027374713 -0.09530668 -0.06919803 0.123935334 -0.057476204 -0.10025145 0.045352656 -0.016279638 -0.06363611 0.1900231 -0.33887917 -0.039896477 0.054396182 -0.36935785 0.017479306 0.07792931 0.09447923 -0.22625148 0.1359508 -0.15643255 0.23033296 0.09022182 0.2581073 0.16552563 -0.02789376 -0.3642995 -0.067488275 -0.0076589393 0.16348082 -0.081254885 -0.008529537 -0.04245506 0.106543325 -0.0660272 -0.26342377 0.10828737 0.3701041 -0.033552304 -0.09764489 -0.08135338 0.17967379 0.059799254 -0.067274034 0.08303084 0.10635138 -0.06390501 0.028474549 0.025389142
지표 0.19741581 0.05623381 0.54708374 -0.14453681 -0.17026614 -0.30158544 -0.098083496 0.10508596 0.09003761 0.2847217 0.10224111 -0.16380231 -0.0024414875 -0.008250612 -0.017733056 -0.03572926 -0.15758596 0.28966936 0.09117421 0.1523413 -0.13559768 0.05857562 -0.05139521 -0.3526346 0.37948844 0.14738925 0.13476793 -0.21662109 -0.24743329 -0.0687416 -0.10413811 -0.2515357 -0.1959468 -0.17847246 -0.088109635 -0.08285184 -0.00825348 0.18260121 -0.18823053 0.006087922 0.20319562 0.029900704 -0.05129177 -0.00023078584 -0.44197536 0.12578514 0.14372993 -0.14333665 -0.3797601 -0.024944453 0.1022371 0.13871618 0.03021041 -0.10999756 -0.07431289 0.13654292 -0.068728514 -0.10486567 0.04196911 -0.01588583 -0.06774366 0.20027196 -0.37175956 -0.03857246 0.05124181 -0.4027109 0.017529188 0.08016597 0.107901394 -0.24472417 0.14516154 -0.17577375 0.25000003 0.09645202 0.27360362 0.1934735 -0.027797889 -0.40182495 -0.070815794 -0.006414195 0.1741684 -0.10521766 -0.017009592 -0.03892571 0.10651237 -0.06515355 -0.30255297 0.10886579 0.39627245 -0.03079033 -0.11107966 -0.08441249 0.19507168 0.06567144 -0.08708894 0.09266587 0.11489506 -0.077113375 0.02497786 0.028453836
금융기관 0.28919137 0.07453861 0.7732569 -0.20649046 -0.2363427 -0.42780632 -0.13424242 0.15922548 0.12141844 0.40335506 0.13157658 -0.22335264 -0.01346249 0.0014650782 -0.042194672 -0.040380456 -0.22221982 0.41186252 0.12861605 0.21259995 -0.19192824 0.08287371 -0.08016893 -0.5044918 0.53727734 0.19919598 0.19326118 -0.31280497 -0.355472 -0.09810286 -0.14242597 -0.3541752 -0.28385404 -0.2560689 -0.13360007 -0.11104333 -0.011464582 0.2593935 -0.26665166 0.016348569 0.30465385 0.04367101 -0.08060268 -0.008559694 -0.63277364 0.17886159 0.19801529 -0.20042373 -0.538125 -0.020488705 0.14859481 0.19973667 0.04729842 -0.151492 -0.117623135 0.18908007 -0.08664322 -0.15380321 0.06402292 -0.03078995 -0.08389368 0.29275256 -0.52748 -0.056258112 0.084950015 -0.5830332 0.019857083 0.11618915 0.14483784 -0.3419755 0.20522134 -0.24538146 0.35790935 0.13725212 0.38653323 0.2697974 -0.05103397 -0.5683251 -0.1062309 -0.005169023 0.24724169 -0.13276103 -0.010597993 -0.0640804 0.16507715 -0.09094242 -0.42030948 0.15642422 0.5749697 -0.05402172 -0.16026577 -0.13591793 0.28044644 0.09620401 -0.11898031 0.133899 0.16035753 -0.113937445 0.034456085 0.034959722
산업 0.3203812 0.0866916 0.85273397 -0.22593482 -0.2508493 -0.47832027 -0.14387749 0.1687409 0.1359455 0.44852883 0.14475712 -0.24865189 -0.013023939 -0.0037435796 -0.042666674 -0.044940565 -0.24476075 0.45276162 0.15077876 0.23471233 -0.21208012 0.0887657 -0.087505475 -0.55051166 0.59593654 0.23211658 0.21975711 -0.3445923 -0.3843644 -0.100295335 -0.15561478 -0.38616621 -0.30660143 -0.2735865 -0.14254554 -0.12862816 -0.0018194014 0.28761956 -0.28395492 0.015242261 0.32483956 0.042741124 -0.08882103 -0.0038308457 -0.7044907 0.19691372 0.22785163 -0.22064795 -0.5966283 -0.023995737 0.15474695 0.2197567 0.06282725 -0.17079827 -0.12601987 0.21883546 -0.09414772 -0.1710829 0.076187 -0.023635864 -0.094902344 0.32208887 -0.5721657 -0.05772667 0.084083796 -0.64401776 0.027954327 0.12700269 0.16179633 -0.384814 0.22776362 -0.2743305 0.3981868 0.15597227 0.43163288 0.29873785 -0.049429107 -0.6374058 -0.10448768 -0.0062509603 0.27941942 -0.1603737 -0.01505098 -0.072347485 0.1721203 -0.09640741 -0.46214935 0.16871321 0.63325137 -0.06022581 -0.17306824 -0.14891161 0.3019249 0.10626421 -0.13396376 0.14549004 0.18399832 -0.11601205 0.0377782 0.044654544
구축 0.23675404 0.07205113 0.6596406 -0.1736761 -0.19311135 -0.3728944 -0.10676085 0.1360244 0.097678676 0.33816266 0.11955767 -0.1915412 -0.01066722 -0.0041887173 -0.03194668 -0.036014028 -0.18376629 0.35414436 0.10686495 0.1711612 -0.16079561 0.063919604 -0.06314432 -0.42459688 0.45142224 0.17352052 0.16544046 -0.26303884 -0.30239794 -0.081761174 -0.11986971 -0.30604774 -0.23981048 -0.20847431 -0.1093842 -0.099033415 -0.0016883016 0.22839527 -0.2236393 0.019533731 0.25267825 0.032573402 -0.058141593 -0.0030749133 -0.5441711 0.1508542 0.17259255 -0.16703144 -0.45807594 -0.028101653 0.13100474 0.16519259 0.038320906 -0.12715524 -0.09949933 0.16886792 -0.07474174 -0.12515186 0.05614886 -0.02557721 -0.07418877 0.24753271 -0.44003716 -0.046773408 0.06610717 -0.4909767 0.014340842 0.09525379 0.13137497 -0.29219735 0.17534657 -0.21102752 0.3076981 0.115520544 0.33450323 0.2202644 -0.039205022 -0.48719475 -0.086084366 -0.0014609864 0.2099273 -0.12216538 -0.013926586 -0.0570954 0.13465758 -0.08159165 -0.36160538 0.12711294 0.48514065 -0.040851638 -0.13876973 -0.104837365 0.23518938 0.07955132 -0.09264905 0.10861521 0.1464383 -0.08715881 0.03206368 0.030747348
이해 0.14200358 0.039580304 0.39478654 -0.10045321 -0.1266837 -0.22063449 -0.0651133 0.082011625 0.05824296 0.20727286 0.069727264 -0.11148762 -0.000986194 -0.006133083 -0.023766698 -0.02168812 -0.11090476 0.20836835 0.07400598 0.11143834 -0.10249147 0.03917241 -0.03840188 -0.25829074 0.2781596 0.098812565 0.09702156 -0.16545625 -0.18094943 -0.044231612 -0.07536149 -0.18672721 -0.14035355 -0.13064307 -0.06315313 -0.060464107 -0.0077856015 0.1329197 -0.13109662 0.006179366 0.1606091 0.02028031 -0.03612021 0.0026733086 -0.32362634 0.08582268 0.10654557 -0.096700676 -0.27173415 -0.013885693 0.07435632 0.10322536 0.026935615 -0.07753806 -0.062362745 0.09694311 -0.052562185 -0.07411979 0.04072846 -0.01933061 -0.04070019 0.15123531 -0.2685855 -0.033534102 0.040905967 -0.2962291 0.013115264 0.05505006 0.07400934 -0.18042792 0.112697504 -0.11980646 0.1891425 0.06901179 0.20095593 0.13491446 -0.019520551 -0.2905559 -0.0543792 -0.008283381 0.12328968 -0.062722474 -0.0071918396 -0.03126908 0.07825372 -0.05442647 -0.22133994 0.0785162 0.28870663 -0.028782587 -0.07731528 -0.06923584 0.14269412 0.050968636 -0.05804035 0.06994345 0.08405939 -0.05064158 0.022919303 0.014102418
책임 0.26673844 0.06949305 0.72937036 -0.19624935 -0.22244704 -0.41065857 -0.11469409 0.14659461 0.11032963 0.37627745 0.12948847 -0.21307136 -0.0053875195 -0.0067247427 -0.03630381 -0.042588655 -0.20679694 0.3902702 0.12449503 0.18865377 -0.17213024 0.07398945 -0.06976216 -0.47835737 0.49762306 0.18742135 0.18504475 -0.2967944 -0.33383054 -0.08670216 -0.1386626 -0.33455834 -0.25896925 -0.23770472 -0.11567024 -0.110807054 -0.00620305 0.24842955 -0.24803095 0.01726464 0.2836355 0.030534703 -0.076075844 -0.010038785 -0.59847397 0.17130092 0.19283858 -0.18033053 -0.50388616 -0.029503478 0.13797171 0.18747403 0.050851446 -0.13933639 -0.09940163 0.18603444 -0.08845577 -0.1402501 0.06441449 -0.019633623 -0.07841154 0.27594522 -0.4922786 -0.046320815 0.07847547 -0.5509157 0.023845538 0.11462451 0.13462053 -0.32953537 0.19622546 -0.22988388 0.33568045 0.1307293 0.37385175 0.25431606 -0.0500589 -0.5427644 -0.09762277 -0.0069916323 0.2306838 -0.13023996 -0.013192616 -0.06020108 0.14572226 -0.08433517 -0.3977396 0.13954481 0.5407935 -0.04607711 -0.15197395 -0.12614505 0.26211154 0.09363087 -0.10752402 0.1252912 0.15297583 -0.102010176 0.03541699 0.035939164
결정 0.25571337 0.067041606 0.68785864 -0.18730265 -0.21355513 -0.3935373 -0.119163305 0.14123343 0.105558574 0.36031815 0.12158724 -0.209367 -0.009608748 -0.0052217143 -0.030015403 -0.036655236 -0.19385147 0.37223038 0.11724243 0.1853236 -0.1646174 0.07152647 -0.064358495 -0.45008054 0.48303676 0.18321097 0.17203903 -0.27952823 -0.31671354 -0.08188184 -0.1289291 -0.31379208 -0.24450527 -0.22281356 -0.121219106 -0.09939102 -0.0059370873 0.23194669 -0.23472221 0.017415743 0.26362383 0.03798301 -0.07210384 -0.0050597047 -0.5700592 0.15791662 0.17873994 -0.1753224 -0.47768235 -0.02611426 0.1304765 0.18057658 0.047227584 -0.13869178 -0.09965822 0.17080756 -0.073647656 -0.13804781 0.06002372 -0.02161554 -0.08185861 0.26049978 -0.46796027 -0.045027778 0.068380736 -0.52178967 0.020718597 0.10065053 0.13230036 -0.30472404 0.18351388 -0.21433628 0.31573728 0.12639084 0.34771928 0.24388216 -0.037572194 -0.5136394 -0.0851169 -0.0052276333 0.22510469 -0.11978269 -0.013636006 -0.056990158 0.14644311 -0.084246874 -0.3739767 0.13617298 0.51285714 -0.043736883 -0.1387962 -0.11931472 0.24299511 0.082859844 -0.100840025 0.12079405 0.14550781 -0.094366804 0.031016897 0.033804465
영향 0.22067197 0.061571162 0.5910473 -0.16117395 -0.17496522 -0.33204207 -0.09884452 0.11860925 0.09271881 0.31134337 0.1025334 -0.17526154 -0.007849989 -0.007445857 -0.022978645 -0.03878474 -0.1639634 0.31184217 0.10267313 0.15900964 -0.1399738 0.05515535 -0.06364188 -0.3916601 0.4160789 0.15516154 0.14661568 -0.23547736 -0.26524183 -0.07083791 -0.10676375 -0.2743453 -0.21444932 -0.19526818 -0.09716403 -0.08892302 -0.0053599207 0.19879577 -0.20052686 0.013264996 0.23098983 0.030730467 -0.057748962 -0.0035785455 -0.48328668 0.14296569 0.15905127 -0.15788284 -0.41183528 -0.023854721 0.104755566 0.15554562 0.037582476 -0.11774387 -0.08803961 0.15561327 -0.07279273 -0.11891226 0.051359173 -0.01581981 -0.069455504 0.22505899 -0.40303773 -0.043027382 0.055650584 -0.4503118 0.010575349 0.089354984 0.11206843 -0.26494673 0.16020814 -0.1890746 0.27679136 0.1115542 0.3018303 0.20069954 -0.03494992 -0.43651417 -0.071609296 -0.008539076 0.19303021 -0.113142096 -0.016431922 -0.050454937 0.121554084 -0.0702279 -0.3283352 0.11367952 0.44269663 -0.041851133 -0.11809668 -0.094119325 0.21217136 0.076841 -0.09424865 0.10553788 0.12989216 -0.08699601 0.030492418 0.03307174
관점 0.21327329 0.061652903 0.59955764 -0.15294102 -0.17852362 -0.3355199 -0.10544732 0.12577462 0.09080644 0.30947074 0.103737384 -0.1759755 -0.007804775 0.0032452354 -0.026617832 -0.034980122 -0.16632642 0.31489995 0.10368144 0.15782912 -0.14856076 0.061883397 -0.05900167 -0.38761464 0.4136343 0.15933348 0.1522343 -0.24327347 -0.2725877 -0.07145039 -0.11435531 -0.2697058 -0.21263283 -0.19928302 -0.1024203 -0.08488116 -0.004974006 0.19954127 -0.20681465 0.007993957 0.23271151 0.03275094 -0.05363552 -0.008221127 -0.4917871 0.1359479 0.15679614 -0.14788488 -0.41860452 -0.02432427 0.11309112 0.14970784 0.034807574 -0.11435274 -0.088427216 0.14670736 -0.0697915 -0.11781425 0.048932016 -0.016558427 -0.06918937 0.22424103 -0.40506944 -0.035639554 0.06346701 -0.4484 0.012312529 0.08594211 0.10919766 -0.2667632 0.16637178 -0.19319034 0.26896462 0.1041648 0.3060554 0.20965773 -0.032909114 -0.43495107 -0.07833449 -0.0015420916 0.18902873 -0.10194256 -0.004908184 -0.04507246 0.11959375 -0.07749656 -0.32477963 0.11827432 0.4435083 -0.041551962 -0.118572295 -0.10070436 0.21519248 0.073948 -0.085742764 0.10341112 0.13052887 -0.08487433 0.034240086 0.022865785
달성 0.19169438 0.05715525 0.519118 -0.14922774 -0.15168902 -0.29482892 -0.08792617 0.11421794 0.08569111 0.28020412 0.09220845 -0.1534306 -0.010950601 -0.0018872287 -0.021458084 -0.034615282 -0.15539841 0.2877204 0.0919106 0.13717203 -0.12843862 0.05881983 -0.045615196 -0.33936852 0.3715235 0.14030755 0.13503851 -0.21503228 -0.24374892 -0.06419304 -0.10211704 -0.23786873 -0.1902922 -0.17634584 -0.08953035 -0.07538074 -0.0056635556 0.18473549 -0.17991026 0.004611582 0.20803128 0.030773722 -0.0569103 -0.008225008 -0.4367 0.12340478 0.14148997 -0.14001013 -0.37187994 -0.021282755 0.100972705 0.13183428 0.03898917 -0.10105873 -0.06893775 0.1353277 -0.053629093 -0.107923225 0.038809173 -0.022174165 -0.06616254 0.19961272 -0.35468206 -0.040835693 0.05608794 -0.40389103 0.019110631 0.07603507 0.09688501 -0.23850271 0.13676868 -0.16116606 0.24355808 0.09903938 0.2699402 0.18272193 -0.030145412 -0.38503346 -0.064528085 -0.008019914 0.16621189 -0.10450749 -0.008443309 -0.048379026 0.112133294 -0.063261256 -0.29512468 0.102031186 0.39028 -0.035017006 -0.10479901 -0.08107585 0.18192576 0.061803795 -0.07329223 0.08734133 0.11267257 -0.0784348 0.023352765 0.022420716
모든 0.24275446 0.0712167 0.6584681 -0.18095657 -0.1966923 -0.3633418 -0.10537744 0.12905018 0.10672553 0.3385239 0.115918756 -0.1904097 -0.003010286 -0.0051420233 -0.027166266 -0.03832925 -0.1885569 0.35259014 0.10580904 0.17579354 -0.15830603 0.06942189 -0.06504361 -0.42472148 0.45970815 0.17711608 0.16127035 -0.26964965 -0.29550493 -0.07635057 -0.12525897 -0.30318832 -0.24152374 -0.21066613 -0.10402986 -0.09649387 -0.009497985 0.22078536 -0.22304313 0.009778022 0.25761497 0.03215676 -0.06039015 -0.008572996 -0.5360431 0.15711078 0.17050952 -0.16871326 -0.45313495 -0.02188884 0.12358325 0.1687427 0.039705496 -0.13123964 -0.09495658 0.16950642 -0.074188955 -0.1300672 0.05442558 -0.02096616 -0.07341661 0.251181 -0.4489115 -0.0473135 0.0650346 -0.49591494 0.0168266 0.093143 0.12618425 -0.28753155 0.181849 -0.20564882 0.3064567 0.12408105 0.33882627 0.22866431 -0.038005188 -0.4880653 -0.08083307 0.0025899373 0.21543482 -0.120373055 -0.01371933 -0.047130402 0.13722 -0.08091634 -0.35872653 0.1313298 0.48239607 -0.043587465 -0.1292253 -0.10834212 0.23769921 0.078814745 -0.09710662 0.10724324 0.14371014 -0.09631421 0.032051213 0.0349568
방법 0.23617668 0.07116468 0.6559229 -0.17005025 -0.19783783 -0.36249354 -0.10710503 0.12910834 0.10292979 0.3382961 0.11806528 -0.19497824 -0.007440581 -0.0031142656 -0.034135453 -0.032745417 -0.19124709 0.34404296 0.10529742 0.17209803 -0.16409642 0.0680377 -0.066956975 -0.42814648 0.45737112 0.17880106 0.16122493 -0.26002476 -0.29376048 -0.08371958 -0.12079573 -0.29552707 -0.23158099 -0.21267128 -0.109059475 -0.09533459 -0.008068981 0.22150674 -0.21807256 0.015934912 0.25381932 0.030756177 -0.06436702 -0.00683411 -0.5415125 0.15119796 0.17525446 -0.1622349 -0.45800945 -0.024148593 0.11678948 0.1683244 0.04776015 -0.12940808 -0.09715837 0.16757806 -0.072367206 -0.1266872 0.051736582 -0.026779829 -0.080320835 0.24860743 -0.44312415 -0.04765356 0.07186336 -0.49631408 0.0144591695 0.09447069 0.13001089 -0.28957903 0.17717382 -0.20953155 0.30478153 0.11468824 0.3378826 0.22504799 -0.045514613 -0.4884042 -0.07953215 -0.0060828407 0.20970784 -0.12300336 -0.013552963 -0.048503753 0.13974963 -0.074561246 -0.35849944 0.1319752 0.48865378 -0.047102213 -0.13224998 -0.105066314 0.23662384 0.07954606 -0.09737507 0.11437191 0.13521028 -0.09292688 0.032709286 0.034236874
년대 0.29268575 0.08183482 0.80102575 -0.216933 -0.24889234 -0.44942418 -0.13107435 0.15743457 0.12486195 0.4217459 0.14025666 -0.23612717 -0.0035926208 -0.004126964 -0.035461374 -0.04284133 -0.23029876 0.4267449 0.12889597 0.21820043 -0.19468749 0.08117431 -0.071420066 -0.5171082 0.55765367 0.21340375 0.207407 -0.3248178 -0.36442468 -0.10054351 -0.15257727 -0.3739528 -0.2883728 -0.26445064 -0.13763328 -0.118652426 -0.005103878 0.2770603 -0.2729425 0.018378263 0.30126193 0.048149165 -0.07828396 -0.0066661285 -0.6593511 0.1842736 0.21201472 -0.20909587 -0.5620914 -0.02437731 0.14895037 0.19941314 0.05409153 -0.16006109 -0.11486242 0.20182492 -0.093974166 -0.15879314 0.0673728 -0.030518038 -0.0966592 0.303699 -0.54571074 -0.050991405 0.07931794 -0.5974733 0.015060485 0.11603341 0.15007164 -0.35931626 0.22145581 -0.2574228 0.36402464 0.14207914 0.4127517 0.26902896 -0.05229652 -0.5871084 -0.09506057 -0.0021733993 0.2579313 -0.14276446 -0.02033978 -0.062889844 0.17002866 -0.09522075 -0.4300068 0.16390337 0.59089774 -0.05780576 -0.16489573 -0.13509849 0.2800503 0.093516394 -0.124252446 0.1406684 0.17753589 -0.11007134 0.042823665 0.031196974
투자 0.30825946 0.08778986 0.8453338 -0.23257002 -0.2583079 -0.47926527 -0.13996117 0.1739794 0.12986615 0.449664 0.14392501 -0.24817732 -0.006217957 -0.0024934527 -0.035076402 -0.049922142 -0.24778803 0.45244163 0.14628804 0.23286264 -0.2108853 0.08978294 -0.08759608 -0.5511347 0.59001493 0.22120601 0.21884288 -0.34927955 -0.39043477 -0.10279223 -0.1523312 -0.38460386 -0.302595 -0.27257255 -0.14168303 -0.1287909 -0.010136008 0.28737548 -0.29178938 0.019720273 0.32570007 0.043818742 -0.07765043 -0.00480539 -0.7022484 0.19318587 0.21961944 -0.21776801 -0.59341675 -0.032282516 0.1646288 0.22001657 0.05917223 -0.16134131 -0.12399043 0.21776538 -0.09667847 -0.17170575 0.0694954 -0.03305228 -0.093452595 0.322958 -0.58104855 -0.05617697 0.09278887 -0.64434004 0.019623617 0.12647018 0.16069096 -0.37750888 0.23080312 -0.26888585 0.39407805 0.15582669 0.42794764 0.29884577 -0.05260338 -0.6337025 -0.11347556 -0.0064628636 0.27835044 -0.14779265 -0.017557131 -0.064907834 0.1779031 -0.10796843 -0.4682102 0.16429634 0.6300827 -0.055191007 -0.17549567 -0.13675047 0.3056105 0.106789865 -0.12154953 0.14943266 0.18337794 -0.11667673 0.046640366 0.03816045
대상 0.2140278 0.05673229 0.56904054 -0.15135345 -0.1759709 -0.3187071 -0.09774674 0.120333284 0.095376395 0.29735404 0.10846234 -0.17204684 -0.0126343 -0.0064641037 -0.021038279 -0.03853144 -0.16083944 0.30658334 0.094192 0.14910011 -0.1371644 0.054262288 -0.057582162 -0.37516335 0.39569178 0.15238656 0.14360093 -0.23680681 -0.25399083 -0.06741334 -0.10624211 -0.26823455 -0.2118411 -0.18661089 -0.09792766 -0.093561165 -0.010639766 0.19369748 -0.1906877 0.011281528 0.22368795 0.032396264 -0.053999342 -0.006844103 -0.4695409 0.12987414 0.15490666 -0.13808405 -0.39282817 -0.019491607 0.11394929 0.14355175 0.040540658 -0.11161273 -0.08739089 0.14366679 -0.061391555 -0.10597846 0.04971195 -0.020562742 -0.07113858 0.21924815 -0.39053696 -0.039496846 0.06297905 -0.43135563 0.024988258 0.08042851 0.11455743 -0.25941807 0.15974267 -0.18771453 0.2664629 0.10434792 0.29087582 0.1967058 -0.03273028 -0.4273574 -0.06883056 -0.0050825174 0.17715655 -0.09767353 -0.013664018 -0.04383603 0.11271402 -0.07253445 -0.31268507 0.11678019 0.42474326 -0.03893865 -0.119176775 -0.09475378 0.19963975 0.07367535 -0.078740574 0.103087105 0.12563604 -0.08063117 0.02495219 0.031041214
다음 0.19600748 0.057834595 0.53407717 -0.14002395 -0.16267936 -0.2997846 -0.09544492 0.111265615 0.08074101 0.2868715 0.093770154 -0.16392836 -0.013004189 -0.007166488 -0.019503001 -0.036956705 -0.15262362 0.28673896 0.095459215 0.14535043 -0.13226806 0.059787508 -0.045958612 -0.3497836 0.3762841 0.14767367 0.13533801 -0.22170503 -0.24329153 -0.069725595 -0.10209905 -0.2433355 -0.19744313 -0.17775492 -0.09478839 -0.08172464 -0.0059513445 0.1842458 -0.18613993 0.009610516 0.20907669 0.024487799 -0.052454088 -0.0057610245 -0.4423494 0.12890294 0.14554885 -0.1400006 -0.37432486 -0.023405211 0.105518945 0.1338018 0.04034046 -0.1022573 -0.0764921 0.13287523 -0.060875617 -0.104024805 0.048825417 -0.019233316 -0.060104433 0.20284034 -0.36116818 -0.036317483 0.059973624 -0.41085765 0.008817039 0.07710511 0.100944616 -0.2423724 0.14754623 -0.17209528 0.2541525 0.101020716 0.27197888 0.18243413 -0.034665328 -0.4030977 -0.06800117 0.0004549383 0.17764464 -0.094878696 -0.007051362 -0.049051117 0.10594121 -0.064296566 -0.2932033 0.11431719 0.40335897 -0.043643273 -0.11071731 -0.08927281 0.1879478 0.06879651 -0.082523346 0.097026825 0.11341854 -0.07663545 0.027772004 0.019341467
분석 0.26113185 0.071066536 0.72019595 -0.19159596 -0.22234513 -0.40506178 -0.12729555 0.14520392 0.11023836 0.38333964 0.12887745 -0.2184743 -0.0034157836 -0.0028321426 -0.037601233 -0.038083423 -0.20548283 0.38034275 0.12134507 0.19771582 -0.17305885 0.07678931 -0.064285986 -0.4725834 0.50716037 0.1891432 0.17888165 -0.29786626 -0.3354351 -0.08768564 -0.12933163 -0.32836568 -0.2664865 -0.2329534 -0.12096563 -0.10425817 -0.0067627407 0.2521759 -0.24832557 0.02021803 0.2835657 0.031975176 -0.06682333 -7.995511e-05 -0.5920754 0.16381639 0.19543453 -0.18932483 -0.5051577 -0.026575895 0.13315976 0.1786918 0.05191352 -0.13908792 -0.1044112 0.18046536 -0.08329773 -0.14262941 0.06860937 -0.028975083 -0.08517541 0.27619195 -0.49505186 -0.05011539 0.078371055 -0.5500635 0.022960372 0.114677735 0.14385794 -0.3266852 0.19132452 -0.22355086 0.33903173 0.13180862 0.36272702 0.24538794 -0.047003943 -0.5393357 -0.08925156 -0.0005363988 0.2363927 -0.12542073 -0.018165467 -0.05602152 0.14807574 -0.08664845 -0.39599654 0.14770468 0.53895915 -0.049030002 -0.14168866 -0.12328759 0.261077 0.087015085 -0.11135888 0.12800243 0.14927314 -0.10326705 0.030991776 0.02998678
